<?xml version="1.0"?>
<MethodSetup Method="BDT::BDTG">
  <GeneralInfo>
    <Info name="TMVA Release" value="4.2.1 [262657]"/>
    <Info name="ROOT Release" value="6.22/00 [398848]"/>
    <Info name="Creator" value="student"/>
    <Info name="Date" value="Wed Mar 10 22:03:41 2021"/>
    <Info name="Host" value="Linux 4810ea7846ee 4.15.0-1089-azure #99~16.04.1-Ubuntu SMP Fri Jun 5 15:30:32 UTC 2020 x86_64 x86_64 x86_64 GNU/Linux"/>
    <Info name="Dir" value="/home/student"/>
    <Info name="Training events" value="12367"/>
    <Info name="TrainingTime" value="5.37384009e+00"/>
    <Info name="AnalysisType" value="Classification"/>
  </GeneralInfo>
  <Options>
    <Option name="V" modified="Yes">False</Option>
    <Option name="VerbosityLevel" modified="No">Default</Option>
    <Option name="VarTransform" modified="Yes">N,G,G_Signal,G_Background</Option>
    <Option name="H" modified="Yes">False</Option>
    <Option name="CreateMVAPdfs" modified="No">False</Option>
    <Option name="IgnoreNegWeightsInTraining" modified="No">False</Option>
    <Option name="NTrees" modified="Yes">450</Option>
    <Option name="MaxDepth" modified="Yes">2</Option>
    <Option name="MinNodeSize" modified="Yes">0.050000%</Option>
    <Option name="nCuts" modified="Yes">100</Option>
    <Option name="BoostType" modified="Yes">AdaBoost</Option>
    <Option name="AdaBoostR2Loss" modified="No">quadratic</Option>
    <Option name="UseBaggedBoost" modified="Yes">True</Option>
    <Option name="Shrinkage" modified="No">1.000000e+00</Option>
    <Option name="AdaBoostBeta" modified="Yes">1.000000e-02</Option>
    <Option name="UseRandomisedTrees" modified="No">False</Option>
    <Option name="UseNvars" modified="No">4</Option>
    <Option name="UsePoissonNvars" modified="No">True</Option>
    <Option name="BaggedSampleFraction" modified="Yes">5.000000e-01</Option>
    <Option name="UseYesNoLeaf" modified="No">True</Option>
    <Option name="NegWeightTreatment" modified="No">inverseboostnegweights</Option>
    <Option name="Css" modified="No">1.000000e+00</Option>
    <Option name="Cts_sb" modified="No">1.000000e+00</Option>
    <Option name="Ctb_ss" modified="No">1.000000e+00</Option>
    <Option name="Cbb" modified="No">1.000000e+00</Option>
    <Option name="NodePurityLimit" modified="No">5.000000e-01</Option>
    <Option name="SeparationType" modified="Yes">giniindex</Option>
    <Option name="RegressionLossFunctionBDTG" modified="No">huber</Option>
    <Option name="HuberQuantile" modified="No">7.000000e-01</Option>
    <Option name="DoBoostMonitor" modified="No">False</Option>
    <Option name="UseFisherCuts" modified="No">False</Option>
    <Option name="MinLinCorrForFisher" modified="No">8.000000e-01</Option>
    <Option name="UseExclusiveVars" modified="No">False</Option>
    <Option name="DoPreselection" modified="No">False</Option>
    <Option name="SigToBkgFraction" modified="No">1.000000e+00</Option>
    <Option name="PruneMethod" modified="No">nopruning</Option>
    <Option name="PruneStrength" modified="No">0.000000e+00</Option>
    <Option name="PruningValFraction" modified="No">5.000000e-01</Option>
    <Option name="SkipNormalization" modified="No">False</Option>
    <Option name="nEventsMin" modified="No">0</Option>
    <Option name="UseBaggedGrad" modified="No">False</Option>
    <Option name="GradBaggingFraction" modified="No">5.000000e-01</Option>
    <Option name="UseNTrainEvents" modified="No">0</Option>
    <Option name="NNodesMax" modified="No">0</Option>
  </Options>
  <Variables NVar="12">
    <Variable VarIndex="0" Expression="B_ENDVERTEX_CHI2" Label="B_ENDVERTEX_CHI2" Title="B_ENDVERTEX_CHI2" Unit="" Internal="B_ENDVERTEX_CHI2" Type="F" Min="2.61078309e-02" Max="2.99901218e+01"/>
    <Variable VarIndex="1" Expression="B_OWNPV_CHI2" Label="B_OWNPV_CHI2" Title="B_OWNPV_CHI2" Unit="" Internal="B_OWNPV_CHI2" Type="F" Min="-9.99000000e+02" Max="7.82402878e+01"/>
    <Variable VarIndex="2" Expression="B_IPCHI2_OWNPV" Label="B_IPCHI2_OWNPV" Title="B_IPCHI2_OWNPV" Unit="" Internal="B_IPCHI2_OWNPV" Type="F" Min="-9.99000000e+02" Max="2.49233093e+01"/>
    <Variable VarIndex="3" Expression="B_DIRA_OWNPV" Label="B_DIRA_OWNPV" Title="B_DIRA_OWNPV" Unit="" Internal="B_DIRA_OWNPV" Type="F" Min="-9.99000000e+02" Max="1.00000000e+00"/>
    <Variable VarIndex="4" Expression="B_PT" Label="B_PT" Title="B_PT" Unit="" Internal="B_PT" Type="F" Min="1.62177612e+02" Max="7.86047422e+04"/>
    <Variable VarIndex="5" Expression="B_FDCHI2_OWNPV" Label="B_FDCHI2_OWNPV" Title="B_FDCHI2_OWNPV" Unit="" Internal="B_FDCHI2_OWNPV" Type="F" Min="-9.99000000e+02" Max="3.08240031e+05"/>
    <Variable VarIndex="6" Expression="D0_IPCHI2_OWNPV" Label="D0_IPCHI2_OWNPV" Title="D0_IPCHI2_OWNPV" Unit="" Internal="D0_IPCHI2_OWNPV" Type="F" Min="4.65458106e-05" Max="3.18082832e+04"/>
    <Variable VarIndex="7" Expression="D0_IP_OWNPV" Label="D0_IP_OWNPV" Title="D0_IP_OWNPV" Unit="" Internal="D0_IP_OWNPV" Type="F" Min="8.50076103e-05" Max="1.14493608e+01"/>
    <Variable VarIndex="8" Expression="D0_DIRA_ORIVX" Label="D0_DIRA_ORIVX" Title="D0_DIRA_ORIVX" Unit="" Internal="D0_DIRA_ORIVX" Type="F" Min="-1.00000000e+00" Max="1.00000000e+00"/>
    <Variable VarIndex="9" Expression="D0_ENDVERTEX_CHI2" Label="D0_ENDVERTEX_CHI2" Title="D0_ENDVERTEX_CHI2" Unit="" Internal="D0_ENDVERTEX_CHI2" Type="F" Min="2.07220291e-04" Max="2.99955921e+01"/>
    <Variable VarIndex="10" Expression="D0_FDCHI2_OWNPV" Label="D0_FDCHI2_OWNPV" Title="D0_FDCHI2_OWNPV" Unit="" Internal="D0_FDCHI2_OWNPV" Type="F" Min="8.11425400e+00" Max="7.81184875e+05"/>
    <Variable VarIndex="11" Expression="D0_DIRA_OWNPV" Label="D0_DIRA_OWNPV" Title="D0_DIRA_OWNPV" Unit="" Internal="D0_DIRA_OWNPV" Type="F" Min="2.65533011e-02" Max="1.00000000e+00"/>
  </Variables>
  <Spectators NSpec="0"/>
  <Classes NClass="2">
    <Class Name="Signal" Index="0"/>
    <Class Name="Background" Index="1"/>
  </Classes>
  <Transformations NTransformations="4">
    <Transform Name="Normalize">
      <Selection>
        <Input NInputs="12">
          <Input Type="Variable" Label="B_ENDVERTEX_CHI2" Expression="B_ENDVERTEX_CHI2"/>
          <Input Type="Variable" Label="B_OWNPV_CHI2" Expression="B_OWNPV_CHI2"/>
          <Input Type="Variable" Label="B_IPCHI2_OWNPV" Expression="B_IPCHI2_OWNPV"/>
          <Input Type="Variable" Label="B_DIRA_OWNPV" Expression="B_DIRA_OWNPV"/>
          <Input Type="Variable" Label="B_PT" Expression="B_PT"/>
          <Input Type="Variable" Label="B_FDCHI2_OWNPV" Expression="B_FDCHI2_OWNPV"/>
          <Input Type="Variable" Label="D0_IPCHI2_OWNPV" Expression="D0_IPCHI2_OWNPV"/>
          <Input Type="Variable" Label="D0_IP_OWNPV" Expression="D0_IP_OWNPV"/>
          <Input Type="Variable" Label="D0_DIRA_ORIVX" Expression="D0_DIRA_ORIVX"/>
          <Input Type="Variable" Label="D0_ENDVERTEX_CHI2" Expression="D0_ENDVERTEX_CHI2"/>
          <Input Type="Variable" Label="D0_FDCHI2_OWNPV" Expression="D0_FDCHI2_OWNPV"/>
          <Input Type="Variable" Label="D0_DIRA_OWNPV" Expression="D0_DIRA_OWNPV"/>
        </Input>
        <Output NOutputs="12">
          <Output Type="Variable" Label="B_ENDVERTEX_CHI2" Expression="B_ENDVERTEX_CHI2"/>
          <Output Type="Variable" Label="B_OWNPV_CHI2" Expression="B_OWNPV_CHI2"/>
          <Output Type="Variable" Label="B_IPCHI2_OWNPV" Expression="B_IPCHI2_OWNPV"/>
          <Output Type="Variable" Label="B_DIRA_OWNPV" Expression="B_DIRA_OWNPV"/>
          <Output Type="Variable" Label="B_PT" Expression="B_PT"/>
          <Output Type="Variable" Label="B_FDCHI2_OWNPV" Expression="B_FDCHI2_OWNPV"/>
          <Output Type="Variable" Label="D0_IPCHI2_OWNPV" Expression="D0_IPCHI2_OWNPV"/>
          <Output Type="Variable" Label="D0_IP_OWNPV" Expression="D0_IP_OWNPV"/>
          <Output Type="Variable" Label="D0_DIRA_ORIVX" Expression="D0_DIRA_ORIVX"/>
          <Output Type="Variable" Label="D0_ENDVERTEX_CHI2" Expression="D0_ENDVERTEX_CHI2"/>
          <Output Type="Variable" Label="D0_FDCHI2_OWNPV" Expression="D0_FDCHI2_OWNPV"/>
          <Output Type="Variable" Label="D0_DIRA_OWNPV" Expression="D0_DIRA_OWNPV"/>
        </Output>
      </Selection>
      <Class ClassIndex="0">
        <Ranges>
          <Range Index="0" Min="4.0133513510227203e-02" Max="2.9740341186523438e+01"/>
          <Range Index="1" Min="1.0098711252212524e+00" Max="7.8240287780761719e+01"/>
          <Range Index="2" Min="1.2462583836168051e-03" Max="2.4923309326171875e+01"/>
          <Range Index="3" Min="9.9906849861145020e-01" Max="1.0000000000000000e+00"/>
          <Range Index="4" Min="1.9279930419921875e+03" Max="4.8626300781250000e+04"/>
          <Range Index="5" Min="8.1952171325683594e+00" Max="3.0824003125000000e+05"/>
          <Range Index="6" Min="1.1321756243705750e-01" Max="3.1808283203125000e+04"/>
          <Range Index="7" Min="6.6173155792057514e-03" Max="6.4378461837768555e+00"/>
          <Range Index="8" Min="-1.0000000000000000e+00" Max="1.0000000000000000e+00"/>
          <Range Index="9" Min="5.7414505630731583e-02" Max="2.9495721817016602e+01"/>
          <Range Index="10" Min="3.6489940643310547e+01" Max="4.1799178125000000e+05"/>
          <Range Index="11" Min="3.9754411578178406e-01" Max="1.0000000000000000e+00"/>
        </Ranges>
      </Class>
      <Class ClassIndex="1">
        <Ranges>
          <Range Index="0" Min="2.6107830926775932e-02" Max="2.9990121841430664e+01"/>
          <Range Index="1" Min="-9.9900000000000000e+02" Max="-9.9900000000000000e+02"/>
          <Range Index="2" Min="-9.9900000000000000e+02" Max="-9.9900000000000000e+02"/>
          <Range Index="3" Min="-9.9900000000000000e+02" Max="-9.9900000000000000e+02"/>
          <Range Index="4" Min="1.6217761230468750e+02" Max="7.8604742187500000e+04"/>
          <Range Index="5" Min="-9.9900000000000000e+02" Max="-9.9900000000000000e+02"/>
          <Range Index="6" Min="4.6545810619136319e-05" Max="3.1757539062500000e+04"/>
          <Range Index="7" Min="8.5007610323373228e-05" Max="1.1449360847473145e+01"/>
          <Range Index="8" Min="-1.0000000000000000e+00" Max="1.0000000000000000e+00"/>
          <Range Index="9" Min="2.0722029148600996e-04" Max="2.9995592117309570e+01"/>
          <Range Index="10" Min="8.1142539978027344e+00" Max="7.8118487500000000e+05"/>
          <Range Index="11" Min="2.6553301140666008e-02" Max="1.0000000000000000e+00"/>
        </Ranges>
      </Class>
      <Class ClassIndex="2">
        <Ranges>
          <Range Index="0" Min="2.6107830926775932e-02" Max="2.9990121841430664e+01"/>
          <Range Index="1" Min="-9.9900000000000000e+02" Max="7.8240287780761719e+01"/>
          <Range Index="2" Min="-9.9900000000000000e+02" Max="2.4923309326171875e+01"/>
          <Range Index="3" Min="-9.9900000000000000e+02" Max="1.0000000000000000e+00"/>
          <Range Index="4" Min="1.6217761230468750e+02" Max="7.8604742187500000e+04"/>
          <Range Index="5" Min="-9.9900000000000000e+02" Max="3.0824003125000000e+05"/>
          <Range Index="6" Min="4.6545810619136319e-05" Max="3.1808283203125000e+04"/>
          <Range Index="7" Min="8.5007610323373228e-05" Max="1.1449360847473145e+01"/>
          <Range Index="8" Min="-1.0000000000000000e+00" Max="1.0000000000000000e+00"/>
          <Range Index="9" Min="2.0722029148600996e-04" Max="2.9995592117309570e+01"/>
          <Range Index="10" Min="8.1142539978027344e+00" Max="7.8118487500000000e+05"/>
          <Range Index="11" Min="2.6553301140666008e-02" Max="1.0000000000000000e+00"/>
        </Ranges>
      </Class>
    </Transform>
    <Transform Name="Gauss" FlatOrGauss="Gauss">
      <Selection>
        <Input NInputs="12">
          <Input Type="Variable" Label="B_ENDVERTEX_CHI2" Expression="B_ENDVERTEX_CHI2"/>
          <Input Type="Variable" Label="B_OWNPV_CHI2" Expression="B_OWNPV_CHI2"/>
          <Input Type="Variable" Label="B_IPCHI2_OWNPV" Expression="B_IPCHI2_OWNPV"/>
          <Input Type="Variable" Label="B_DIRA_OWNPV" Expression="B_DIRA_OWNPV"/>
          <Input Type="Variable" Label="B_PT" Expression="B_PT"/>
          <Input Type="Variable" Label="B_FDCHI2_OWNPV" Expression="B_FDCHI2_OWNPV"/>
          <Input Type="Variable" Label="D0_IPCHI2_OWNPV" Expression="D0_IPCHI2_OWNPV"/>
          <Input Type="Variable" Label="D0_IP_OWNPV" Expression="D0_IP_OWNPV"/>
          <Input Type="Variable" Label="D0_DIRA_ORIVX" Expression="D0_DIRA_ORIVX"/>
          <Input Type="Variable" Label="D0_ENDVERTEX_CHI2" Expression="D0_ENDVERTEX_CHI2"/>
          <Input Type="Variable" Label="D0_FDCHI2_OWNPV" Expression="D0_FDCHI2_OWNPV"/>
          <Input Type="Variable" Label="D0_DIRA_OWNPV" Expression="D0_DIRA_OWNPV"/>
        </Input>
        <Output NOutputs="12">
          <Output Type="Variable" Label="B_ENDVERTEX_CHI2" Expression="B_ENDVERTEX_CHI2"/>
          <Output Type="Variable" Label="B_OWNPV_CHI2" Expression="B_OWNPV_CHI2"/>
          <Output Type="Variable" Label="B_IPCHI2_OWNPV" Expression="B_IPCHI2_OWNPV"/>
          <Output Type="Variable" Label="B_DIRA_OWNPV" Expression="B_DIRA_OWNPV"/>
          <Output Type="Variable" Label="B_PT" Expression="B_PT"/>
          <Output Type="Variable" Label="B_FDCHI2_OWNPV" Expression="B_FDCHI2_OWNPV"/>
          <Output Type="Variable" Label="D0_IPCHI2_OWNPV" Expression="D0_IPCHI2_OWNPV"/>
          <Output Type="Variable" Label="D0_IP_OWNPV" Expression="D0_IP_OWNPV"/>
          <Output Type="Variable" Label="D0_DIRA_ORIVX" Expression="D0_DIRA_ORIVX"/>
          <Output Type="Variable" Label="D0_ENDVERTEX_CHI2" Expression="D0_ENDVERTEX_CHI2"/>
          <Output Type="Variable" Label="D0_FDCHI2_OWNPV" Expression="D0_FDCHI2_OWNPV"/>
          <Output Type="Variable" Label="D0_DIRA_OWNPV" Expression="D0_DIRA_OWNPV"/>
        </Output>
      </Selection>
      <Variable VarIndex="0">
        <CumulativePDF_cls0>
          <PDF Name="GaussTransform var0 cls0" MinNSmooth="0" MaxNSmooth="0" InterpolMethod="1" KDE_type="0" KDE_iter="1" KDE_border="1" KDE_finefactor="0.0000000000000000e+00">
            <Histogram Name="Cumulative_Var0_cls0_original" NBins="238" XMin="-9.9916386604309082e-01" XMax="9.8332798480987549e-01" HasEquidistantBins="0">
              3.05520440e-03 6.84787193e-03 1.10356091e-02 1.52760223e-02 1.94900967e-02 2.37041712e-02 2.79182475e-02 3.21323201e-02 3.63463983e-02 4.05604728e-02 4.47745472e-02 4.89886217e-02 5.32026961e-02 5.74167706e-02 6.16308488e-02 6.58449233e-02 7.00589940e-02 7.42730722e-02 7.84871504e-02 8.27012211e-02 8.69152993e-02 9.11293700e-02 9.53434482e-02 9.95575190e-02 1.03771597e-01 1.07985675e-01 1.12199746e-01 1.16413824e-01 1.20627895e-01 1.24841973e-01 1.29056051e-01 1.33270130e-01 1.37484193e-01 1.41698271e-01 1.45912349e-01 1.50126427e-01 1.54340491e-01 1.58554569e-01 1.62768647e-01 1.66982725e-01 1.71196803e-01 1.75410867e-01 1.79624945e-01 1.83839023e-01 1.88053101e-01 1.92267179e-01 1.96481243e-01 2.00695321e-01 2.04909399e-01 2.09123477e-01 2.13337541e-01 2.17551619e-01 2.21765697e-01 2.25979775e-01 2.30193853e-01 2.34407917e-01 2.38621995e-01 2.42836073e-01 2.47050151e-01 2.51264215e-01 2.55478293e-01 2.59692371e-01 2.63906449e-01 2.68120527e-01 2.72334605e-01 2.76548684e-01 2.80762762e-01 2.84976810e-01 2.89190888e-01 2.93404967e-01 2.97619045e-01 3.01833123e-01 3.06047201e-01 3.10261279e-01 3.14475358e-01 3.18689436e-01 3.22903484e-01 3.27117562e-01 3.31331640e-01 3.35545719e-01 3.39759797e-01 3.43973875e-01 3.48187953e-01 3.52402031e-01 3.56616110e-01 3.60830158e-01 3.65044236e-01 3.69258314e-01 3.73472393e-01 3.77686471e-01 3.81900549e-01 3.86114627e-01 3.90328705e-01 3.94542783e-01 3.98756862e-01 4.02970910e-01 4.07184988e-01 4.11399066e-01 4.15613145e-01 4.19827223e-01 4.24041301e-01 4.28255379e-01 4.32469457e-01 4.36683536e-01 4.40897584e-01 4.45111662e-01 4.49325740e-01 4.53539819e-01 4.57753897e-01 4.61967975e-01 4.66182053e-01 4.70396131e-01 4.74610209e-01 4.78824288e-01 4.83038336e-01 4.87252414e-01 4.91466492e-01 4.95680571e-01 4.99894649e-01 5.04108727e-01 5.08322775e-01 5.12536883e-01 5.16750932e-01 5.20965040e-01 5.25179088e-01 5.29393196e-01 5.33607244e-01 5.37821352e-01 5.42035401e-01 5.46249449e-01 5.50463557e-01 5.54677606e-01 5.58891714e-01 5.63105762e-01 5.67319870e-01 5.71533918e-01 5.75748026e-01 5.79962075e-01 5.84176123e-01 5.88390231e-01 5.92604280e-01 5.96818388e-01 6.01032436e-01 6.05246544e-01 6.09460592e-01 6.13674700e-01 6.17888749e-01 6.22102797e-01 6.26316905e-01 6.30530953e-01 6.34745061e-01 6.38959110e-01 6.43173218e-01 6.47387266e-01 6.51601374e-01 6.55815423e-01 6.60029471e-01 6.64243579e-01 6.68457627e-01 6.72671735e-01 6.76885784e-01 6.81099892e-01 6.85313940e-01 6.89528048e-01 6.93742096e-01 6.97956145e-01 7.02170253e-01 7.06384301e-01 7.10598409e-01 7.14812458e-01 7.19026566e-01 7.23240614e-01 7.27454722e-01 7.31668770e-01 7.35882878e-01 7.40096927e-01 7.44310975e-01 7.48525083e-01 7.52739131e-01 7.56953239e-01 7.61167288e-01 7.65381396e-01 7.69595444e-01 7.73809552e-01 7.78023601e-01 7.82237649e-01 7.86451757e-01 7.90665805e-01 7.94879913e-01 7.99093962e-01 8.03308070e-01 8.07522118e-01 8.11736226e-01 8.15950274e-01 8.20164323e-01 8.24378431e-01 8.28592479e-01 8.32806587e-01 8.37020636e-01 8.41234744e-01 8.45448792e-01 8.49662900e-01 8.53876948e-01 8.58090997e-01 8.62305105e-01 8.66519153e-01 8.70733261e-01 8.74947309e-01 8.79161417e-01 8.83375466e-01 8.87589574e-01 8.91803622e-01 8.96017671e-01 9.00231779e-01 9.04445827e-01 9.08659935e-01 9.12873983e-01 9.17088091e-01 9.21302140e-01 9.25516248e-01 9.29730296e-01 9.33944345e-01 9.38158453e-01 9.42372501e-01 9.46586609e-01 9.50800657e-01 9.55014765e-01 9.59228814e-01 9.63442922e-01 9.67656970e-01 9.71871078e-01 9.76085126e-01 9.80299175e-01 9.84513283e-01 9.88727331e-01 9.92836058e-01 9.96628761e-01 1.00000000e+00 
            </Histogram>
            <HistogramBinning NBins="238">
              -9.99163866e-01 -9.99063849e-01 -9.95162666e-01 -9.93278503e-01 -9.89429533e-01 -9.87421036e-01 -9.85504627e-01 -9.83438730e-01 -9.81219113e-01 -9.78491366e-01 -9.76924658e-01 -9.75363255e-01 -9.71813381e-01 -9.69128966e-01 -9.66223300e-01 -9.64827836e-01 -9.62464988e-01 -9.58047748e-01 -9.57266748e-01 -9.55318272e-01 -9.53668714e-01 -9.52631831e-01 -9.50725734e-01 -9.49584186e-01 -9.48650241e-01 -9.46262538e-01 -9.45149183e-01 -9.43060875e-01 -9.40783858e-01 -9.38527286e-01 -9.36331868e-01 -9.34887171e-01 -9.32885647e-01 -9.31176245e-01 -9.30006504e-01 -9.27975655e-01 -9.27234888e-01 -9.25525367e-01 -9.24512327e-01 -9.22784209e-01 -9.20442045e-01 -9.18970883e-01 -9.17727530e-01 -9.16425705e-01 -9.15154636e-01 -9.13353443e-01 -9.12324071e-01 -9.11451519e-01 -9.09983754e-01 -9.09194589e-01 -9.07206833e-01 -9.05417085e-01 -9.03910160e-01 -9.02576149e-01 -9.01073217e-01 -8.97575676e-01 -8.95266712e-01 -8.92041564e-01 -8.90993714e-01 -8.89217556e-01 -8.87027144e-01 -8.85107040e-01 -8.82839859e-01 -8.81300449e-01 -8.79965961e-01 -8.77872169e-01 -8.76419187e-01 -8.73420954e-01 -8.71756852e-01 -8.70338678e-01 -8.68372202e-01 -8.67329836e-01 -8.66262078e-01 -8.64826202e-01 -8.62672210e-01 -8.61207247e-01 -8.58725429e-01 -8.56852651e-01 -8.53507102e-01 -8.51505101e-01 -8.49973261e-01 -8.48910093e-01 -8.46037686e-01 -8.44445109e-01 -8.42291117e-01 -8.40600610e-01 -8.38950992e-01 -8.36569488e-01 -8.34942520e-01 -8.32949698e-01 -8.28756094e-01 -8.25456023e-01 -8.24011683e-01 -8.21783900e-01 -8.18860471e-01 -8.16296458e-01 -8.14783573e-01 -8.12010586e-01 -8.09802890e-01 -8.08363318e-01 -8.06439757e-01 -8.03943634e-01 -8.00379992e-01 -7.96634853e-01 -7.92718351e-01 -7.89982975e-01 -7.87486434e-01 -7.85741746e-01 -7.84069479e-01 -7.81717539e-01 -7.79340148e-01 -7.77708769e-01 -7.74994671e-01 -7.72094369e-01 -7.69609630e-01 -7.67237246e-01 -7.65856802e-01 -7.62573659e-01 -7.59718239e-01 -7.57942617e-01 -7.56382287e-01 -7.53519833e-01 -7.51213610e-01 -7.47780204e-01 -7.45658755e-01 -7.43422031e-01 -7.40738273e-01 -7.39489317e-01 -7.36045599e-01 -7.33507037e-01 -7.29991853e-01 -7.26087332e-01 -7.23137021e-01 -7.19871759e-01 -7.16350496e-01 -7.11626649e-01 -7.07046032e-01 -7.05569267e-01 -7.02430248e-01 -6.99360192e-01 -6.97504759e-01 -6.94943428e-01 -6.93541288e-01 -6.90078139e-01 -6.87589169e-01 -6.83140159e-01 -6.80462062e-01 -6.77127481e-01 -6.74136281e-01 -6.69854403e-01 -6.67461574e-01 -6.62225127e-01 -6.58346653e-01 -6.56147301e-01 -6.47078395e-01 -6.43065572e-01 -6.39582634e-01 -6.35906816e-01 -6.32030487e-01 -6.28133416e-01 -6.25876307e-01 -6.21198773e-01 -6.16221309e-01 -6.11449063e-01 -6.08058095e-01 -6.03277445e-01 -5.98725021e-01 -5.93423128e-01 -5.88709593e-01 -5.85372090e-01 -5.78076243e-01 -5.72595060e-01 -5.66336870e-01 -5.62858820e-01 -5.52607417e-01 -5.46519220e-01 -5.41298330e-01 -5.36424339e-01 -5.31124711e-01 -5.29331446e-01 -5.23282051e-01 -5.19927263e-01 -5.13988078e-01 -5.09625912e-01 -5.05264282e-01 -4.97359157e-01 -4.92587745e-01 -4.87294376e-01 -4.80368555e-01 -4.77048993e-01 -4.70712721e-01 -4.65324759e-01 -4.59826350e-01 -4.50376570e-01 -4.42337632e-01 -4.30939853e-01 -4.19737697e-01 -4.13151205e-01 -4.03958321e-01 -3.96888912e-01 -3.87419105e-01 -3.75588536e-01 -3.66124034e-01 -3.54692459e-01 -3.47499549e-01 -3.31406653e-01 -3.18014383e-01 -3.10545385e-01 -2.96971023e-01 -2.81983614e-01 -2.52430975e-01 -2.40190625e-01 -2.24478185e-01 -2.12985635e-01 -1.98391736e-01 -1.79578185e-01 -1.53659284e-01 -1.39517069e-01 -1.26915574e-01 -9.97634530e-02 -7.26433396e-02 -5.67963123e-02 -2.83049941e-02 9.98961926e-03 4.47232723e-02 6.81729317e-02 1.20676994e-01 1.48902655e-01 1.90351605e-01 2.51849532e-01 2.98908591e-01 3.61153960e-01 3.83954406e-01 4.56670523e-01 5.09597063e-01 5.91861844e-01 7.77891397e-01 8.97926092e-01 9.83327985e-01 
            </HistogramBinning>
          </PDF>
        </CumulativePDF_cls0>
        <CumulativePDF_cls1>
          <PDF Name="GaussTransform var0 cls1" MinNSmooth="0" MaxNSmooth="0" InterpolMethod="1" KDE_type="0" KDE_iter="1" KDE_border="1" KDE_finefactor="0.0000000000000000e+00">
            <Histogram Name="Cumulative_Var0_cls1_original" NBins="1001" XMin="-1.0001000165939331e+00" XMax="1.0000000000000000e+00" HasEquidistantBins="0">
              7.24547135e-04 1.62398501e-03 2.61711422e-03 3.62273585e-03 4.62211110e-03 5.62148634e-03 6.62086206e-03 7.62023730e-03 8.61961301e-03 9.61898826e-03 1.06183635e-02 1.16177388e-02 1.26171140e-02 1.36164892e-02 1.46158654e-02 1.56152407e-02 1.66146159e-02 1.76139921e-02 1.86133664e-02 1.96127426e-02 2.06121169e-02 2.16114931e-02 2.26108674e-02 2.36102436e-02 2.46096198e-02 2.56089941e-02 2.66083702e-02 2.76077446e-02 2.86071207e-02 2.96064951e-02 3.06058712e-02 3.16052474e-02 3.26046236e-02 3.36039960e-02 3.46033722e-02 3.56027484e-02 3.66021246e-02 3.76015007e-02 3.86008732e-02 3.96002494e-02 4.05996256e-02 4.15990017e-02 4.25983742e-02 4.35977504e-02 4.45971265e-02 4.55965027e-02 4.65958789e-02 4.75952514e-02 4.85946275e-02 4.95940037e-02 5.05933799e-02 5.15927561e-02 5.25921285e-02 5.35915047e-02 5.45908809e-02 5.55902570e-02 5.65896332e-02 5.75890057e-02 5.85883819e-02 5.95877580e-02 6.05871342e-02 6.15865067e-02 6.25858828e-02 6.35852590e-02 6.45846352e-02 6.55840114e-02 6.65833876e-02 6.75827637e-02 6.85821325e-02 6.95815086e-02 7.05808848e-02 7.15802610e-02 7.25796372e-02 7.35790133e-02 7.45783895e-02 7.55777657e-02 7.65771419e-02 7.75765181e-02 7.85758868e-02 7.95752630e-02 8.05746391e-02 8.15740153e-02 8.25733915e-02 8.35727677e-02 8.45721439e-02 8.55715200e-02 8.65708962e-02 8.75702649e-02 8.85696411e-02 8.95690173e-02 9.05683935e-02 9.15677696e-02 9.25671458e-02 9.35665220e-02 9.45658982e-02 9.55652744e-02 9.65646505e-02 9.75640193e-02 9.85633954e-02 9.95627716e-02 1.00562148e-01 1.01561524e-01 1.02560900e-01 1.03560276e-01 1.04559653e-01 1.05559029e-01 1.06558397e-01 1.07557774e-01 1.08557150e-01 1.09556526e-01 1.10555902e-01 1.11555278e-01 1.12554654e-01 1.13554031e-01 1.14553407e-01 1.15552783e-01 1.16552152e-01 1.17551528e-01 1.18550904e-01 1.19550280e-01 1.20549656e-01 1.21549033e-01 1.22548409e-01 1.23547785e-01 1.24547161e-01 1.25546530e-01 1.26545906e-01 1.27545282e-01 1.28544658e-01 1.29544035e-01 1.30543411e-01 1.31542787e-01 1.32542163e-01 1.33541539e-01 1.34540915e-01 1.35540292e-01 1.36539668e-01 1.37539044e-01 1.38538420e-01 1.39537781e-01 1.40537158e-01 1.41536534e-01 1.42535910e-01 1.43535286e-01 1.44534662e-01 1.45534039e-01 1.46533415e-01 1.47532791e-01 1.48532167e-01 1.49531543e-01 1.50530919e-01 1.51530296e-01 1.52529672e-01 1.53529048e-01 1.54528424e-01 1.55527800e-01 1.56527176e-01 1.57526553e-01 1.58525914e-01 1.59525290e-01 1.60524666e-01 1.61524042e-01 1.62523419e-01 1.63522795e-01 1.64522171e-01 1.65521547e-01 1.66520923e-01 1.67520300e-01 1.68519676e-01 1.69519052e-01 1.70518428e-01 1.71517804e-01 1.72517180e-01 1.73516557e-01 1.74515933e-01 1.75515309e-01 1.76514685e-01 1.77514046e-01 1.78513423e-01 1.79512799e-01 1.80512175e-01 1.81511551e-01 1.82510927e-01 1.83510303e-01 1.84509680e-01 1.85509056e-01 1.86508432e-01 1.87507808e-01 1.88507184e-01 1.89506561e-01 1.90505937e-01 1.91505313e-01 1.92504689e-01 1.93504065e-01 1.94503441e-01 1.95502818e-01 1.96502179e-01 1.97501555e-01 1.98500931e-01 1.99500307e-01 2.00499684e-01 2.01499060e-01 2.02498436e-01 2.03497812e-01 2.04497188e-01 2.05496565e-01 2.06495941e-01 2.07495317e-01 2.08494693e-01 2.09494069e-01 2.10493445e-01 2.11492822e-01 2.12492198e-01 2.13491574e-01 2.14490950e-01 2.15490311e-01 2.16489688e-01 2.17489064e-01 2.18488440e-01 2.19487816e-01 2.20487192e-01 2.21486568e-01 2.22485945e-01 2.23485321e-01 2.24484697e-01 2.25484073e-01 2.26483449e-01 2.27482826e-01 2.28482202e-01 2.29481578e-01 2.30480954e-01 2.31480330e-01 2.32479706e-01 2.33479083e-01 2.34478444e-01 2.35477820e-01 2.36477196e-01 2.37476572e-01 2.38475949e-01 2.39475325e-01 2.40474701e-01 2.41474077e-01 2.42473453e-01 2.43472829e-01 2.44472206e-01 2.45471582e-01 2.46470958e-01 2.47470334e-01 2.48469710e-01 2.49469087e-01 2.50468463e-01 2.51467824e-01 2.52467215e-01 2.53466576e-01 2.54465967e-01 2.55465329e-01 2.56464720e-01 2.57464081e-01 2.58463472e-01 2.59462833e-01 2.60462224e-01 2.61461586e-01 2.62460947e-01 2.63460338e-01 2.64459699e-01 2.65459090e-01 2.66458452e-01 2.67457843e-01 2.68457204e-01 2.69456595e-01 2.70455956e-01 2.71455348e-01 2.72454709e-01 2.73454100e-01 2.74453461e-01 2.75452852e-01 2.76452214e-01 2.77451605e-01 2.78450966e-01 2.79450357e-01 2.80449718e-01 2.81449080e-01 2.82448471e-01 2.83447832e-01 2.84447223e-01 2.85446584e-01 2.86445975e-01 2.87445337e-01 2.88444728e-01 2.89444089e-01 2.90443480e-01 2.91442841e-01 2.92442232e-01 2.93441594e-01 2.94440985e-01 2.95440346e-01 2.96439737e-01 2.97439098e-01 2.98438489e-01 2.99437851e-01 3.00437212e-01 3.01436603e-01 3.02435964e-01 3.03435355e-01 3.04434717e-01 3.05434108e-01 3.06433469e-01 3.07432860e-01 3.08432221e-01 3.09431612e-01 3.10430974e-01 3.11430365e-01 3.12429726e-01 3.13429117e-01 3.14428478e-01 3.15427870e-01 3.16427231e-01 3.17426622e-01 3.18425983e-01 3.19425344e-01 3.20424736e-01 3.21424097e-01 3.22423488e-01 3.23422849e-01 3.24422240e-01 3.25421602e-01 3.26420993e-01 3.27420354e-01 3.28419745e-01 3.29419106e-01 3.30418497e-01 3.31417859e-01 3.32417250e-01 3.33416611e-01 3.34416002e-01 3.35415363e-01 3.36414754e-01 3.37414116e-01 3.38413477e-01 3.39412868e-01 3.40412229e-01 3.41411620e-01 3.42410982e-01 3.43410373e-01 3.44409734e-01 3.45409125e-01 3.46408486e-01 3.47407877e-01 3.48407239e-01 3.49406630e-01 3.50405991e-01 3.51405382e-01 3.52404743e-01 3.53404135e-01 3.54403496e-01 3.55402887e-01 3.56402248e-01 3.57401609e-01 3.58401000e-01 3.59400362e-01 3.60399753e-01 3.61399114e-01 3.62398505e-01 3.63397866e-01 3.64397258e-01 3.65396619e-01 3.66396010e-01 3.67395371e-01 3.68394762e-01 3.69394124e-01 3.70393515e-01 3.71392876e-01 3.72392267e-01 3.73391628e-01 3.74391019e-01 3.75390381e-01 3.76389742e-01 3.77389133e-01 3.78388494e-01 3.79387885e-01 3.80387247e-01 3.81386638e-01 3.82385999e-01 3.83385390e-01 3.84384751e-01 3.85384142e-01 3.86383504e-01 3.87382895e-01 3.88382256e-01 3.89381647e-01 3.90381008e-01 3.91380399e-01 3.92379761e-01 3.93379152e-01 3.94378513e-01 3.95377874e-01 3.96377265e-01 3.97376627e-01 3.98376018e-01 3.99375379e-01 4.00374770e-01 4.01374131e-01 4.02373523e-01 4.03372884e-01 4.04372275e-01 4.05371636e-01 4.06371027e-01 4.07370389e-01 4.08369780e-01 4.09369141e-01 4.10368532e-01 4.11367893e-01 4.12367284e-01 4.13366646e-01 4.14366007e-01 4.15365398e-01 4.16364759e-01 4.17364150e-01 4.18363512e-01 4.19362903e-01 4.20362264e-01 4.21361655e-01 4.22361016e-01 4.23360407e-01 4.24359769e-01 4.25359160e-01 4.26358521e-01 4.27357912e-01 4.28357273e-01 4.29356664e-01 4.30356026e-01 4.31355417e-01 4.32354778e-01 4.33354139e-01 4.34353530e-01 4.35352892e-01 4.36352283e-01 4.37351644e-01 4.38351035e-01 4.39350396e-01 4.40349787e-01 4.41349149e-01 4.42348540e-01 4.43347901e-01 4.44347292e-01 4.45346653e-01 4.46346045e-01 4.47345406e-01 4.48344797e-01 4.49344158e-01 4.50343549e-01 4.51342911e-01 4.52342272e-01 4.53341663e-01 4.54341024e-01 4.55340415e-01 4.56339777e-01 4.57339168e-01 4.58338529e-01 4.59337920e-01 4.60337281e-01 4.61336672e-01 4.62336034e-01 4.63335425e-01 4.64334786e-01 4.65334177e-01 4.66333538e-01 4.67332929e-01 4.68332291e-01 4.69331682e-01 4.70331043e-01 4.71330404e-01 4.72329795e-01 4.73329157e-01 4.74328548e-01 4.75327909e-01 4.76327300e-01 4.77326661e-01 4.78326052e-01 4.79325414e-01 4.80324805e-01 4.81324166e-01 4.82323557e-01 4.83322918e-01 4.84322309e-01 4.85321671e-01 4.86321062e-01 4.87320423e-01 4.88319814e-01 4.89319175e-01 4.90318537e-01 4.91317928e-01 4.92317289e-01 4.93316680e-01 4.94316041e-01 4.95315433e-01 4.96314794e-01 4.97314185e-01 4.98313546e-01 4.99312937e-01 5.00312328e-01 5.01311660e-01 5.02311051e-01 5.03310442e-01 5.04309833e-01 5.05309165e-01 5.06308556e-01 5.07307947e-01 5.08307278e-01 5.09306669e-01 5.10306060e-01 5.11305451e-01 5.12304783e-01 5.13304174e-01 5.14303565e-01 5.15302956e-01 5.16302288e-01 5.17301679e-01 5.18301070e-01 5.19300461e-01 5.20299792e-01 5.21299183e-01 5.22298574e-01 5.23297966e-01 5.24297297e-01 5.25296688e-01 5.26296079e-01 5.27295411e-01 5.28294802e-01 5.29294193e-01 5.30293584e-01 5.31292915e-01 5.32292306e-01 5.33291698e-01 5.34291089e-01 5.35290420e-01 5.36289811e-01 5.37289202e-01 5.38288593e-01 5.39287925e-01 5.40287316e-01 5.41286707e-01 5.42286098e-01 5.43285429e-01 5.44284821e-01 5.45284212e-01 5.46283543e-01 5.47282934e-01 5.48282325e-01 5.49281716e-01 5.50281048e-01 5.51280439e-01 5.52279830e-01 5.53279221e-01 5.54278553e-01 5.55277944e-01 5.56277335e-01 5.57276726e-01 5.58276057e-01 5.59275448e-01 5.60274839e-01 5.61274230e-01 5.62273562e-01 5.63272953e-01 5.64272344e-01 5.65271676e-01 5.66271067e-01 5.67270458e-01 5.68269849e-01 5.69269180e-01 5.70268571e-01 5.71267962e-01 5.72267354e-01 5.73266685e-01 5.74266076e-01 5.75265467e-01 5.76264858e-01 5.77264190e-01 5.78263581e-01 5.79262972e-01 5.80262363e-01 5.81261694e-01 5.82261086e-01 5.83260477e-01 5.84259808e-01 5.85259199e-01 5.86258590e-01 5.87257981e-01 5.88257313e-01 5.89256704e-01 5.90256095e-01 5.91255486e-01 5.92254817e-01 5.93254209e-01 5.94253600e-01 5.95252991e-01 5.96252322e-01 5.97251713e-01 5.98251104e-01 5.99250495e-01 6.00249827e-01 6.01249218e-01 6.02248609e-01 6.03247941e-01 6.04247332e-01 6.05246723e-01 6.06246114e-01 6.07245445e-01 6.08244836e-01 6.09244227e-01 6.10243618e-01 6.11242950e-01 6.12242341e-01 6.13241732e-01 6.14241123e-01 6.15240455e-01 6.16239846e-01 6.17239237e-01 6.18238628e-01 6.19237959e-01 6.20237350e-01 6.21236742e-01 6.22236073e-01 6.23235464e-01 6.24234855e-01 6.25234246e-01 6.26233578e-01 6.27232969e-01 6.28232360e-01 6.29231751e-01 6.30231082e-01 6.31230474e-01 6.32229865e-01 6.33229256e-01 6.34228587e-01 6.35227978e-01 6.36227369e-01 6.37226760e-01 6.38226092e-01 6.39225483e-01 6.40224874e-01 6.41224205e-01 6.42223597e-01 6.43222988e-01 6.44222379e-01 6.45221710e-01 6.46221101e-01 6.47220492e-01 6.48219883e-01 6.49219215e-01 6.50218606e-01 6.51217997e-01 6.52217388e-01 6.53216720e-01 6.54216111e-01 6.55215502e-01 6.56214893e-01 6.57214224e-01 6.58213615e-01 6.59213006e-01 6.60212338e-01 6.61211729e-01 6.62211120e-01 6.63210511e-01 6.64209843e-01 6.65209234e-01 6.66208625e-01 6.67208016e-01 6.68207347e-01 6.69206738e-01 6.70206130e-01 6.71205521e-01 6.72204852e-01 6.73204243e-01 6.74203634e-01 6.75203025e-01 6.76202357e-01 6.77201748e-01 6.78201139e-01 6.79200470e-01 6.80199862e-01 6.81199253e-01 6.82198644e-01 6.83197975e-01 6.84197366e-01 6.85196757e-01 6.86196148e-01 6.87195480e-01 6.88194871e-01 6.89194262e-01 6.90193653e-01 6.91192985e-01 6.92192376e-01 6.93191767e-01 6.94191158e-01 6.95190489e-01 6.96189880e-01 6.97189271e-01 6.98188603e-01 6.99187994e-01 7.00187385e-01 7.01186776e-01 7.02186108e-01 7.03185499e-01 7.04184890e-01 7.05184281e-01 7.06183612e-01 7.07183003e-01 7.08182395e-01 7.09181786e-01 7.10181117e-01 7.11180508e-01 7.12179899e-01 7.13179290e-01 7.14178622e-01 7.15178013e-01 7.16177404e-01 7.17176735e-01 7.18176126e-01 7.19175518e-01 7.20174909e-01 7.21174240e-01 7.22173631e-01 7.23173022e-01 7.24172413e-01 7.25171745e-01 7.26171136e-01 7.27170527e-01 7.28169918e-01 7.29169250e-01 7.30168641e-01 7.31168032e-01 7.32167423e-01 7.33166754e-01 7.34166145e-01 7.35165536e-01 7.36164868e-01 7.37164259e-01 7.38163650e-01 7.39163041e-01 7.40162373e-01 7.41161764e-01 7.42161155e-01 7.43160546e-01 7.44159877e-01 7.45159268e-01 7.46158659e-01 7.47158051e-01 7.48157382e-01 7.49156773e-01 7.50156164e-01 7.51155555e-01 7.52154887e-01 7.53154278e-01 7.54153669e-01 7.55153000e-01 7.56152391e-01 7.57151783e-01 7.58151174e-01 7.59150505e-01 7.60149896e-01 7.61149287e-01 7.62148678e-01 7.63148010e-01 7.64147401e-01 7.65146792e-01 7.66146183e-01 7.67145514e-01 7.68144906e-01 7.69144297e-01 7.70143688e-01 7.71143019e-01 7.72142410e-01 7.73141801e-01 7.74141133e-01 7.75140524e-01 7.76139915e-01 7.77139306e-01 7.78138638e-01 7.79138029e-01 7.80137420e-01 7.81136811e-01 7.82136142e-01 7.83135533e-01 7.84134924e-01 7.85134315e-01 7.86133647e-01 7.87133038e-01 7.88132429e-01 7.89131820e-01 7.90131152e-01 7.91130543e-01 7.92129934e-01 7.93129265e-01 7.94128656e-01 7.95128047e-01 7.96127439e-01 7.97126770e-01 7.98126161e-01 7.99125552e-01 8.00124943e-01 8.01124275e-01 8.02123666e-01 8.03123057e-01 8.04122448e-01 8.05121779e-01 8.06121171e-01 8.07120562e-01 8.08119953e-01 8.09119284e-01 8.10118675e-01 8.11118066e-01 8.12117398e-01 8.13116789e-01 8.14116180e-01 8.15115571e-01 8.16114902e-01 8.17114294e-01 8.18113685e-01 8.19113076e-01 8.20112407e-01 8.21111798e-01 8.22111189e-01 8.23110580e-01 8.24109912e-01 8.25109303e-01 8.26108694e-01 8.27108085e-01 8.28107417e-01 8.29106808e-01 8.30106199e-01 8.31105530e-01 8.32104921e-01 8.33104312e-01 8.34103703e-01 8.35103035e-01 8.36102426e-01 8.37101817e-01 8.38101208e-01 8.39100540e-01 8.40099931e-01 8.41099322e-01 8.42098713e-01 8.43098044e-01 8.44097435e-01 8.45096827e-01 8.46096218e-01 8.47095549e-01 8.48094940e-01 8.49094331e-01 8.50093663e-01 8.51093054e-01 8.52092445e-01 8.53091836e-01 8.54091167e-01 8.55090559e-01 8.56089950e-01 8.57089341e-01 8.58088672e-01 8.59088063e-01 8.60087454e-01 8.61086845e-01 8.62086177e-01 8.63085568e-01 8.64084959e-01 8.65084350e-01 8.66083682e-01 8.67083073e-01 8.68082464e-01 8.69081795e-01 8.70081186e-01 8.71080577e-01 8.72079968e-01 8.73079300e-01 8.74078691e-01 8.75078082e-01 8.76077473e-01 8.77076805e-01 8.78076196e-01 8.79075587e-01 8.80074978e-01 8.81074309e-01 8.82073700e-01 8.83073092e-01 8.84072483e-01 8.85071814e-01 8.86071205e-01 8.87070596e-01 8.88069928e-01 8.89069319e-01 8.90068710e-01 8.91068101e-01 8.92067432e-01 8.93066823e-01 8.94066215e-01 8.95065606e-01 8.96064937e-01 8.97064328e-01 8.98063719e-01 8.99063110e-01 9.00062442e-01 9.01061833e-01 9.02061224e-01 9.03060615e-01 9.04059947e-01 9.05059338e-01 9.06058729e-01 9.07058060e-01 9.08057451e-01 9.09056842e-01 9.10056233e-01 9.11055565e-01 9.12054956e-01 9.13054347e-01 9.14053738e-01 9.15053070e-01 9.16052461e-01 9.17051852e-01 9.18051243e-01 9.19050574e-01 9.20049965e-01 9.21049356e-01 9.22048748e-01 9.23048079e-01 9.24047470e-01 9.25046861e-01 9.26046193e-01 9.27045584e-01 9.28044975e-01 9.29044366e-01 9.30043697e-01 9.31043088e-01 9.32042480e-01 9.33041871e-01 9.34041202e-01 9.35040593e-01 9.36039984e-01 9.37039375e-01 9.38038707e-01 9.39038098e-01 9.40037489e-01 9.41036880e-01 9.42036211e-01 9.43035603e-01 9.44034994e-01 9.45034325e-01 9.46033716e-01 9.47033107e-01 9.48032498e-01 9.49031830e-01 9.50031221e-01 9.51030612e-01 9.52030003e-01 9.53029335e-01 9.54028726e-01 9.55028117e-01 9.56027508e-01 9.57026839e-01 9.58026230e-01 9.59025621e-01 9.60025012e-01 9.61024344e-01 9.62023735e-01 9.63023126e-01 9.64022458e-01 9.65021849e-01 9.66021240e-01 9.67020631e-01 9.68019962e-01 9.69019353e-01 9.70018744e-01 9.71018136e-01 9.72017467e-01 9.73016858e-01 9.74016249e-01 9.75015640e-01 9.76014972e-01 9.77014363e-01 9.78013754e-01 9.79013145e-01 9.80012476e-01 9.81011868e-01 9.82011259e-01 9.83010590e-01 9.84009981e-01 9.85009372e-01 9.86008763e-01 9.87008095e-01 9.88007486e-01 9.89006877e-01 9.90006268e-01 9.91005599e-01 9.92004991e-01 9.93004382e-01 9.94003773e-01 9.95003104e-01 9.96002495e-01 9.97001886e-01 9.98001277e-01 9.99000609e-01 1.00000000e+00 
            </Histogram>
            <HistogramBinning NBins="1001">
              -1.00010002e+00 -1.00000000e+00 -9.96465504e-01 -9.93895411e-01 -9.91620779e-01 -9.89525199e-01 -9.88592565e-01 -9.87256825e-01 -9.85566914e-01 -9.84341800e-01 -9.83271062e-01 -9.82318997e-01 -9.81573761e-01 -9.80481505e-01 -9.79295433e-01 -9.78566051e-01 -9.77390289e-01 -9.76646006e-01 -9.75540578e-01 -9.74533558e-01 -9.72951114e-01 -9.72045064e-01 -9.71086383e-01 -9.70438659e-01 -9.69633877e-01 -9.69040811e-01 -9.68354285e-01 -9.67688143e-01 -9.66997087e-01 -9.65456367e-01 -9.64592338e-01 -9.63788509e-01 -9.62032318e-01 -9.61381912e-01 -9.60162401e-01 -9.59216237e-01 -9.58601594e-01 -9.57503855e-01 -9.56530690e-01 -9.55571711e-01 -9.54280198e-01 -9.53681588e-01 -9.53205705e-01 -9.52395141e-01 -9.51565027e-01 -9.50658381e-01 -9.49558854e-01 -9.48788166e-01 -9.47959423e-01 -9.47022140e-01 -9.45774674e-01 -9.44914937e-01 -9.44294155e-01 -9.43872154e-01 -9.42857802e-01 -9.42190111e-01 -9.41554725e-01 -9.40396905e-01 -9.39488053e-01 -9.38861609e-01 -9.38100755e-01 -9.37783301e-01 -9.37111437e-01 -9.36150730e-01 -9.35772300e-01 -9.35204625e-01 -9.34607625e-01 -9.33470190e-01 -9.32911336e-01 -9.31876898e-01 -9.31487620e-01 -9.30958271e-01 -9.30100858e-01 -9.29111600e-01 -9.28260982e-01 -9.27808881e-01 -9.27464366e-01 -9.26998377e-01 -9.25918758e-01 -9.25332904e-01 -9.24780488e-01 -9.24043298e-01 -9.23257828e-01 -9.22703207e-01 -9.21990871e-01 -9.21150208e-01 -9.20643926e-01 -9.20233786e-01 -9.19572353e-01 -9.19059336e-01 -9.18629706e-01 -9.17920828e-01 -9.17225003e-01 -9.16506529e-01 -9.16250408e-01 -9.15614843e-01 -9.15139079e-01 -9.14713681e-01 -9.13893700e-01 -9.12809908e-01 -9.12137210e-01 -9.11158562e-01 -9.10734892e-01 -9.10122573e-01 -9.08988059e-01 -9.08409178e-01 -9.07320023e-01 -9.06278551e-01 -9.05933142e-01 -9.05452192e-01 -9.04395580e-01 -9.03399467e-01 -9.02695715e-01 -9.01645362e-01 -9.00798440e-01 -8.99887979e-01 -8.99177790e-01 -8.98146451e-01 -8.97623062e-01 -8.96864533e-01 -8.96469474e-01 -8.95579040e-01 -8.94886494e-01 -8.94089341e-01 -8.93191636e-01 -8.92526746e-01 -8.91598761e-01 -8.91001582e-01 -8.90019059e-01 -8.89493108e-01 -8.88861597e-01 -8.88252020e-01 -8.87360156e-01 -8.86925817e-01 -8.86093497e-01 -8.85314703e-01 -8.84877264e-01 -8.84090781e-01 -8.83717060e-01 -8.83369684e-01 -8.82705927e-01 -8.81972253e-01 -8.81329298e-01 -8.80689919e-01 -8.80174160e-01 -8.79453957e-01 -8.78607750e-01 -8.77737641e-01 -8.76981378e-01 -8.76455128e-01 -8.76035810e-01 -8.75070810e-01 -8.74310732e-01 -8.73498440e-01 -8.72699261e-01 -8.71797442e-01 -8.70994806e-01 -8.70447397e-01 -8.69885802e-01 -8.69217992e-01 -8.68326366e-01 -8.67818832e-01 -8.67092550e-01 -8.66318822e-01 -8.66008520e-01 -8.65412116e-01 -8.64792109e-01 -8.64087760e-01 -8.62999797e-01 -8.62496614e-01 -8.62012029e-01 -8.61296415e-01 -8.60600352e-01 -8.59946966e-01 -8.58745039e-01 -8.58178556e-01 -8.56810749e-01 -8.55640471e-01 -8.54831278e-01 -8.54069650e-01 -8.52967381e-01 -8.52334023e-01 -8.51560056e-01 -8.51013422e-01 -8.50519538e-01 -8.49666417e-01 -8.49079549e-01 -8.48274529e-01 -8.47318053e-01 -8.46798241e-01 -8.46303284e-01 -8.45637262e-01 -8.44890594e-01 -8.44014406e-01 -8.43539953e-01 -8.42638075e-01 -8.41773689e-01 -8.41146588e-01 -8.40069413e-01 -8.38907003e-01 -8.38217258e-01 -8.37049127e-01 -8.36240590e-01 -8.35694313e-01 -8.34964275e-01 -8.34121704e-01 -8.33500385e-01 -8.32888842e-01 -8.31910312e-01 -8.31097126e-01 -8.30263555e-01 -8.29658687e-01 -8.29219043e-01 -8.28848958e-01 -8.27518106e-01 -8.26502323e-01 -8.25853109e-01 -8.25393677e-01 -8.24700058e-01 -8.24141502e-01 -8.23019564e-01 -8.21815968e-01 -8.20759237e-01 -8.20028663e-01 -8.19033027e-01 -8.18496287e-01 -8.17898870e-01 -8.17582726e-01 -8.16973448e-01 -8.16224694e-01 -8.15177679e-01 -8.14526260e-01 -8.13935637e-01 -8.13379526e-01 -8.12784612e-01 -8.12110841e-01 -8.11322451e-01 -8.10725033e-01 -8.09561372e-01 -8.08917761e-01 -8.08380306e-01 -8.08083415e-01 -8.07197154e-01 -8.06763887e-01 -8.05928767e-01 -8.04804325e-01 -8.04318309e-01 -8.03640544e-01 -8.03027570e-01 -8.02003622e-01 -8.01129818e-01 -8.00201297e-01 -7.99168825e-01 -7.98178673e-01 -7.97133923e-01 -7.96441972e-01 -7.95861006e-01 -7.95266986e-01 -7.94468462e-01 -7.94102252e-01 -7.93076098e-01 -7.92484820e-01 -7.91659951e-01 -7.90756702e-01 -7.89681613e-01 -7.88843453e-01 -7.88305819e-01 -7.87421465e-01 -7.86818564e-01 -7.85898268e-01 -7.85440981e-01 -7.84777164e-01 -7.84195900e-01 -7.83505559e-01 -7.82754004e-01 -7.81111598e-01 -7.80535281e-01 -7.79652238e-01 -7.78843403e-01 -7.77728379e-01 -7.76612520e-01 -7.75353849e-01 -7.74679661e-01 -7.73786306e-01 -7.73095965e-01 -7.72555411e-01 -7.71884918e-01 -7.71180332e-01 -7.70474434e-01 -7.69299269e-01 -7.68749952e-01 -7.68172503e-01 -7.67883241e-01 -7.67146528e-01 -7.66238928e-01 -7.64848650e-01 -7.63850451e-01 -7.63263524e-01 -7.62453973e-01 -7.61756063e-01 -7.61374235e-01 -7.60937989e-01 -7.59554148e-01 -7.58880615e-01 -7.57979035e-01 -7.57333994e-01 -7.56406903e-01 -7.55124152e-01 -7.53553510e-01 -7.52674460e-01 -7.51220763e-01 -7.50844717e-01 -7.50559986e-01 -7.50011086e-01 -7.49365687e-01 -7.48223305e-01 -7.47563601e-01 -7.47037053e-01 -7.46127605e-01 -7.45348334e-01 -7.44315565e-01 -7.43724346e-01 -7.42719769e-01 -7.42125034e-01 -7.41513014e-01 -7.40279317e-01 -7.39379883e-01 -7.38725126e-01 -7.37681270e-01 -7.36333609e-01 -7.35473514e-01 -7.34579563e-01 -7.33274817e-01 -7.32367158e-01 -7.31864214e-01 -7.31020272e-01 -7.30390728e-01 -7.29579568e-01 -7.28406370e-01 -7.27552414e-01 -7.27025986e-01 -7.26397276e-01 -7.25667715e-01 -7.25236714e-01 -7.24364996e-01 -7.23462343e-01 -7.22525001e-01 -7.21708536e-01 -7.20854640e-01 -7.20224977e-01 -7.19550371e-01 -7.19116688e-01 -7.18286991e-01 -7.17925549e-01 -7.17163920e-01 -7.16038585e-01 -7.14945674e-01 -7.14335918e-01 -7.12625861e-01 -7.11678505e-01 -7.11001277e-01 -7.10361123e-01 -7.09625721e-01 -7.08850503e-01 -7.07849503e-01 -7.07168221e-01 -7.06448019e-01 -7.05643654e-01 -7.04518318e-01 -7.03362107e-01 -7.02626646e-01 -7.01844752e-01 -7.01453149e-01 -7.00911403e-01 -6.99894428e-01 -6.99303031e-01 -6.98116183e-01 -6.97188973e-01 -6.96376741e-01 -6.95507169e-01 -6.94989443e-01 -6.93741977e-01 -6.93052649e-01 -6.91805243e-01 -6.91276550e-01 -6.90748453e-01 -6.90201163e-01 -6.89845562e-01 -6.89010143e-01 -6.87835574e-01 -6.87269926e-01 -6.86600029e-01 -6.85943723e-01 -6.84848070e-01 -6.83759809e-01 -6.82884097e-01 -6.82093978e-01 -6.81412041e-01 -6.80312037e-01 -6.79527044e-01 -6.78916037e-01 -6.78251207e-01 -6.77404761e-01 -6.76327944e-01 -6.75730467e-01 -6.74703181e-01 -6.73829913e-01 -6.73480392e-01 -6.73028827e-01 -6.72289193e-01 -6.71421468e-01 -6.70193076e-01 -6.69528127e-01 -6.68968439e-01 -6.67974114e-01 -6.67042971e-01 -6.66360080e-01 -6.66084111e-01 -6.65371180e-01 -6.64715111e-01 -6.63586855e-01 -6.62620187e-01 -6.61948442e-01 -6.60968959e-01 -6.60249114e-01 -6.59499168e-01 -6.58979774e-01 -6.57492459e-01 -6.56758010e-01 -6.55528426e-01 -6.54951334e-01 -6.54032648e-01 -6.53028309e-01 -6.52266145e-01 -6.51831627e-01 -6.51181042e-01 -6.49930835e-01 -6.49105072e-01 -6.48326516e-01 -6.47430062e-01 -6.46245718e-01 -6.45325184e-01 -6.44289613e-01 -6.43743753e-01 -6.42058134e-01 -6.40943348e-01 -6.40061736e-01 -6.39131308e-01 -6.38035595e-01 -6.37176037e-01 -6.36608958e-01 -6.35602295e-01 -6.34095550e-01 -6.33405447e-01 -6.33028269e-01 -6.31898284e-01 -6.30451143e-01 -6.29488587e-01 -6.28709912e-01 -6.27766252e-01 -6.27295256e-01 -6.26496851e-01 -6.25406146e-01 -6.24413788e-01 -6.23462439e-01 -6.22761726e-01 -6.21497869e-01 -6.20652676e-01 -6.20261788e-01 -6.19564354e-01 -6.18554473e-01 -6.17356956e-01 -6.16749287e-01 -6.15869522e-01 -6.14529014e-01 -6.13004267e-01 -6.11873984e-01 -6.10971332e-01 -6.10361338e-01 -6.09298944e-01 -6.08524919e-01 -6.07804418e-01 -6.06895983e-01 -6.05744898e-01 -6.05334520e-01 -6.04090333e-01 -6.03375673e-01 -6.02450848e-01 -6.01866841e-01 -6.01040006e-01 -5.99607468e-01 -5.99019885e-01 -5.97704291e-01 -5.96321702e-01 -5.94477355e-01 -5.92980564e-01 -5.92223048e-01 -5.91355503e-01 -5.90014935e-01 -5.88566065e-01 -5.87684691e-01 -5.86856842e-01 -5.85743487e-01 -5.84587634e-01 -5.83754659e-01 -5.82736254e-01 -5.82006037e-01 -5.80732584e-01 -5.79161882e-01 -5.78323007e-01 -5.77676415e-01 -5.76858521e-01 -5.75814247e-01 -5.74859738e-01 -5.73756456e-01 -5.72538912e-01 -5.71488023e-01 -5.70022285e-01 -5.69226980e-01 -5.68367779e-01 -5.66843152e-01 -5.65513492e-01 -5.64573407e-01 -5.63447833e-01 -5.62353373e-01 -5.61516166e-01 -5.60806155e-01 -5.59434295e-01 -5.57344913e-01 -5.56463599e-01 -5.55443287e-01 -5.54318309e-01 -5.53329647e-01 -5.52326620e-01 -5.50997734e-01 -5.49568653e-01 -5.48674583e-01 -5.47970474e-01 -5.47161818e-01 -5.46236277e-01 -5.45200765e-01 -5.43996930e-01 -5.43211818e-01 -5.42598724e-01 -5.41518807e-01 -5.40467620e-01 -5.39014697e-01 -5.38195908e-01 -5.37298918e-01 -5.36630392e-01 -5.36135554e-01 -5.35027266e-01 -5.34077942e-01 -5.32265663e-01 -5.31597733e-01 -5.31028211e-01 -5.30062020e-01 -5.28960764e-01 -5.27958989e-01 -5.26986122e-01 -5.25475979e-01 -5.24257064e-01 -5.23150861e-01 -5.22009194e-01 -5.20921111e-01 -5.19476354e-01 -5.17500043e-01 -5.16458035e-01 -5.15809000e-01 -5.15069842e-01 -5.13794541e-01 -5.13145864e-01 -5.12185931e-01 -5.11269331e-01 -5.10230064e-01 -5.08993983e-01 -5.07415295e-01 -5.05946636e-01 -5.04819751e-01 -5.03429532e-01 -5.02019942e-01 -5.00413418e-01 -4.99216080e-01 -4.97991145e-01 -4.97085094e-01 -4.95830655e-01 -4.94414568e-01 -4.93480384e-01 -4.92238939e-01 -4.90969956e-01 -4.89564538e-01 -4.88200843e-01 -4.86861765e-01 -4.85308468e-01 -4.83940423e-01 -4.82394636e-01 -4.81418669e-01 -4.80409324e-01 -4.79174614e-01 -4.78475392e-01 -4.77129877e-01 -4.75670815e-01 -4.75051820e-01 -4.74190652e-01 -4.72790480e-01 -4.71759617e-01 -4.70797718e-01 -4.69009280e-01 -4.67037737e-01 -4.65575933e-01 -4.64275897e-01 -4.62642014e-01 -4.61174011e-01 -4.60114300e-01 -4.58636880e-01 -4.57523882e-01 -4.56610084e-01 -4.55487728e-01 -4.54460025e-01 -4.53650892e-01 -4.52926278e-01 -4.52390671e-01 -4.51068640e-01 -4.49968874e-01 -4.48960543e-01 -4.48273540e-01 -4.46673572e-01 -4.45486248e-01 -4.44044411e-01 -4.42776561e-01 -4.41466391e-01 -4.40077960e-01 -4.39181507e-01 -4.37985420e-01 -4.36795533e-01 -4.35163796e-01 -4.33299720e-01 -4.31579888e-01 -4.30797756e-01 -4.29021001e-01 -4.27389205e-01 -4.26214814e-01 -4.24891174e-01 -4.22721207e-01 -4.21322525e-01 -4.19134855e-01 -4.17929053e-01 -4.15913880e-01 -4.13657367e-01 -4.12297606e-01 -4.10561323e-01 -4.09414351e-01 -4.08072174e-01 -4.06590819e-01 -4.05157208e-01 -4.02679205e-01 -4.01719928e-01 -4.00421202e-01 -3.98265302e-01 -3.97307873e-01 -3.96106243e-01 -3.95175457e-01 -3.93727541e-01 -3.92067909e-01 -3.90889287e-01 -3.89683723e-01 -3.88461411e-01 -3.87577295e-01 -3.85514975e-01 -3.83405209e-01 -3.81388903e-01 -3.80289793e-01 -3.78622293e-01 -3.77519369e-01 -3.75707805e-01 -3.74902487e-01 -3.73490214e-01 -3.72095764e-01 -3.69573355e-01 -3.68479192e-01 -3.66880596e-01 -3.65199029e-01 -3.64199638e-01 -3.61514926e-01 -3.59786868e-01 -3.58559787e-01 -3.57118905e-01 -3.55865657e-01 -3.54340971e-01 -3.52455139e-01 -3.50987017e-01 -3.49266648e-01 -3.47673655e-01 -3.46149504e-01 -3.45593393e-01 -3.44583511e-01 -3.42847884e-01 -3.40980470e-01 -3.38678002e-01 -3.36608410e-01 -3.35360765e-01 -3.33215594e-01 -3.31486225e-01 -3.29826653e-01 -3.27913642e-01 -3.26323211e-01 -3.25479448e-01 -3.24723661e-01 -3.23186576e-01 -3.21603477e-01 -3.20209682e-01 -3.17584276e-01 -3.16054344e-01 -3.14410269e-01 -3.11510861e-01 -3.10130656e-01 -3.08543980e-01 -3.07572484e-01 -3.05974960e-01 -3.04918230e-01 -3.03514421e-01 -3.01587462e-01 -3.00151587e-01 -2.97727942e-01 -2.95968831e-01 -2.93756187e-01 -2.92701900e-01 -2.90591955e-01 -2.88805366e-01 -2.87164330e-01 -2.85600066e-01 -2.83064485e-01 -2.80496776e-01 -2.78562307e-01 -2.76442707e-01 -2.74921060e-01 -2.73996353e-01 -2.72141814e-01 -2.70567536e-01 -2.68844962e-01 -2.66131878e-01 -2.64665484e-01 -2.63015032e-01 -2.60254383e-01 -2.58109212e-01 -2.56377935e-01 -2.54656851e-01 -2.53401875e-01 -2.51538932e-01 -2.50795126e-01 -2.49326885e-01 -2.48020172e-01 -2.46248960e-01 -2.45334744e-01 -2.43430555e-01 -2.41689801e-01 -2.39603698e-01 -2.37053871e-01 -2.35278428e-01 -2.32874811e-01 -2.30688512e-01 -2.28300095e-01 -2.26648510e-01 -2.25457072e-01 -2.22999394e-01 -2.21649826e-01 -2.18525767e-01 -2.16869056e-01 -2.15086401e-01 -2.12806761e-01 -2.10496128e-01 -2.08764732e-01 -2.07190573e-01 -2.04969704e-01 -2.03325093e-01 -2.00986505e-01 -1.98101997e-01 -1.96699858e-01 -1.94834054e-01 -1.93635046e-01 -1.91244602e-01 -1.88166916e-01 -1.87060535e-01 -1.85059488e-01 -1.84418023e-01 -1.82419240e-01 -1.81022048e-01 -1.78958952e-01 -1.77213430e-01 -1.74745977e-01 -1.72652721e-01 -1.68968201e-01 -1.67374492e-01 -1.64921463e-01 -1.62789226e-01 -1.61150455e-01 -1.58076525e-01 -1.56140029e-01 -1.51119590e-01 -1.48048460e-01 -1.45158231e-01 -1.43321931e-01 -1.41100943e-01 -1.37610078e-01 -1.35532498e-01 -1.33217037e-01 -1.31008625e-01 -1.28854454e-01 -1.25999928e-01 -1.23034060e-01 -1.20169580e-01 -1.17751598e-01 -1.15988791e-01 -1.13979280e-01 -1.11376107e-01 -1.08739793e-01 -1.06454253e-01 -1.03510439e-01 -1.00324273e-01 -9.86408591e-02 -9.42686796e-02 -9.28323269e-02 -9.03740525e-02 -8.71992707e-02 -8.61081481e-02 -8.29776525e-02 -8.08638334e-02 -7.83793330e-02 -7.63904452e-02 -7.47506022e-02 -7.19211698e-02 -7.02751875e-02 -6.76799417e-02 -6.51552677e-02 -6.30162358e-02 -6.01478815e-02 -5.78338504e-02 -5.59495687e-02 -5.32191992e-02 -5.19704819e-02 -4.90570664e-02 -4.57151532e-02 -4.03696299e-02 -3.78201008e-02 -3.40754986e-02 -3.11611295e-02 -2.93715000e-02 -2.65606046e-02 -2.36898661e-02 -2.15913653e-02 -1.82443857e-02 -1.40972137e-02 -1.13362670e-02 -8.00102949e-03 -5.87898493e-03 -2.71248817e-03 -6.19232655e-04 2.90858746e-03 3.97026539e-03 6.51896000e-03 9.63568687e-03 1.30711794e-02 1.71518326e-02 2.21822262e-02 2.70889997e-02 2.99818516e-02 3.32334042e-02 3.60002518e-02 4.03702259e-02 4.31114435e-02 4.60523367e-02 5.01015186e-02 5.74386120e-02 6.13979101e-02 6.55572414e-02 6.94508553e-02 7.10932016e-02 7.43196011e-02 7.68088102e-02 7.89418221e-02 8.26663971e-02 8.69401693e-02 9.31224823e-02 9.71156359e-02 1.01257682e-01 1.06830955e-01 1.11922503e-01 1.13858223e-01 1.17664695e-01 1.23714566e-01 1.28437638e-01 1.35822773e-01 1.38424993e-01 1.42006159e-01 1.46235466e-01 1.51063561e-01 1.58509851e-01 1.60556197e-01 1.64076924e-01 1.69787169e-01 1.72353983e-01 1.77080154e-01 1.81503654e-01 1.87379122e-01 1.93924665e-01 2.01539159e-01 2.05168962e-01 2.09618926e-01 2.18008518e-01 2.22770810e-01 2.26670146e-01 2.32333302e-01 2.37870336e-01 2.40975857e-01 2.46622443e-01 2.53404975e-01 2.60777354e-01 2.65794277e-01 2.72831798e-01 2.75860429e-01 2.78422356e-01 2.81685829e-01 2.85758018e-01 2.92715073e-01 3.02529931e-01 3.11038971e-01 3.16276312e-01 3.25682640e-01 3.35294247e-01 3.41212511e-01 3.46689224e-01 3.52864504e-01 3.57623219e-01 3.61410379e-01 3.65449786e-01 3.68059635e-01 3.75530005e-01 3.86816382e-01 3.93177629e-01 4.02383924e-01 4.09108877e-01 4.16480899e-01 4.20923710e-01 4.30592418e-01 4.40801501e-01 4.46363807e-01 4.56168890e-01 4.65589285e-01 4.77157950e-01 4.84145761e-01 4.89906907e-01 4.95468140e-01 5.01588702e-01 5.09027362e-01 5.16868114e-01 5.23772478e-01 5.32901287e-01 5.35575867e-01 5.42758822e-01 5.48393846e-01 5.54827690e-01 5.64493775e-01 5.75401187e-01 5.85829735e-01 5.95368385e-01 6.06957078e-01 6.17890954e-01 6.23600006e-01 6.32029533e-01 6.40043736e-01 6.45797014e-01 6.56417131e-01 6.61607862e-01 6.71304703e-01 6.79759026e-01 6.87648654e-01 6.92896128e-01 7.02809453e-01 7.14425445e-01 7.27510452e-01 7.34951735e-01 7.48133302e-01 7.61164546e-01 7.71419048e-01 7.87731290e-01 7.95454621e-01 8.06983948e-01 8.18642616e-01 8.29995990e-01 8.38069201e-01 8.57626319e-01 8.67372394e-01 8.76623273e-01 8.84876966e-01 8.98841858e-01 9.10938621e-01 9.31945682e-01 9.48866606e-01 9.58585382e-01 9.71863627e-01 9.80279565e-01 1.00000000e+00 
            </HistogramBinning>
          </PDF>
        </CumulativePDF_cls1>
        <CumulativePDF_cls2>
          <PDF Name="GaussTransform var0 cls2" MinNSmooth="0" MaxNSmooth="0" InterpolMethod="1" KDE_type="0" KDE_iter="1" KDE_border="1" KDE_finefactor="0.0000000000000000e+00">
            <Histogram Name="Cumulative_Var0_cls2_original" NBins="1238" XMin="-1.0001000165939331e+00" XMax="1.0000000000000000e+00" HasEquidistantBins="0">
              5.85799397e-04 1.31299871e-03 2.11594789e-03 2.92899716e-03 3.73699632e-03 4.54499526e-03 5.35299443e-03 6.16099406e-03 6.96899323e-03 7.77699240e-03 8.58499110e-03 9.39299073e-03 1.02009894e-02 1.10089891e-02 1.18169878e-02 1.26249874e-02 1.34329861e-02 1.42409857e-02 1.50489854e-02 1.58569850e-02 1.66649837e-02 1.74729824e-02 1.82809811e-02 1.90889817e-02 1.98969804e-02 2.07049791e-02 2.15129778e-02 2.23209783e-02 2.31289770e-02 2.39369757e-02 2.47449744e-02 2.55529750e-02 2.63609737e-02 2.71689724e-02 2.79769711e-02 2.87849717e-02 2.95929704e-02 3.04009691e-02 3.12089697e-02 3.20169665e-02 3.28249671e-02 3.36329676e-02 3.44409645e-02 3.52489650e-02 3.60569656e-02 3.68649624e-02 3.76729630e-02 3.84809598e-02 3.92889604e-02 4.00969610e-02 4.09049578e-02 4.17129584e-02 4.25209589e-02 4.33289558e-02 4.41369563e-02 4.49449569e-02 4.57529537e-02 4.65609543e-02 4.73689511e-02 4.81769517e-02 4.89849523e-02 4.97929491e-02 5.06009497e-02 5.14089502e-02 5.22169471e-02 5.30249476e-02 5.38329445e-02 5.46409450e-02 5.54489456e-02 5.62569425e-02 5.70649430e-02 5.78729436e-02 5.86809404e-02 5.94889410e-02 6.02969415e-02 6.11049384e-02 6.19129390e-02 6.27209395e-02 6.35289401e-02 6.43369332e-02 6.51449338e-02 6.59529343e-02 6.67609349e-02 6.75689355e-02 6.83769286e-02 6.91849291e-02 6.99929297e-02 7.08009303e-02 7.16089308e-02 7.24169239e-02 7.32249245e-02 7.40329251e-02 7.48409256e-02 7.56489262e-02 7.64569268e-02 7.72649199e-02 7.80729204e-02 7.88809210e-02 7.96889216e-02 8.04969221e-02 8.13049152e-02 8.21129158e-02 8.29209164e-02 8.37289169e-02 8.45369175e-02 8.53449181e-02 8.61529112e-02 8.69609118e-02 8.77689123e-02 8.85769129e-02 8.93849134e-02 9.01929066e-02 9.10009071e-02 9.18089077e-02 9.26169083e-02 9.34249088e-02 9.42329094e-02 9.50409025e-02 9.58489031e-02 9.66569036e-02 9.74649042e-02 9.82729048e-02 9.90808979e-02 9.98888984e-02 1.00696899e-01 1.01504900e-01 1.02312900e-01 1.03120893e-01 1.03928894e-01 1.04736894e-01 1.05544895e-01 1.06352895e-01 1.07160896e-01 1.07968889e-01 1.08776890e-01 1.09584890e-01 1.10392891e-01 1.11200891e-01 1.12008885e-01 1.12816885e-01 1.13624886e-01 1.14432886e-01 1.15240887e-01 1.16048887e-01 1.16856880e-01 1.17664881e-01 1.18472882e-01 1.19280882e-01 1.20088883e-01 1.20896876e-01 1.21704876e-01 1.22512877e-01 1.23320878e-01 1.24128878e-01 1.24936879e-01 1.25744879e-01 1.26552880e-01 1.27360865e-01 1.28168866e-01 1.28976867e-01 1.29784867e-01 1.30592868e-01 1.31400868e-01 1.32208869e-01 1.33016869e-01 1.33824870e-01 1.34632871e-01 1.35440871e-01 1.36248857e-01 1.37056857e-01 1.37864858e-01 1.38672858e-01 1.39480859e-01 1.40288860e-01 1.41096860e-01 1.41904861e-01 1.42712861e-01 1.43520862e-01 1.44328862e-01 1.45136848e-01 1.45944849e-01 1.46752849e-01 1.47560850e-01 1.48368850e-01 1.49176851e-01 1.49984851e-01 1.50792852e-01 1.51600853e-01 1.52408853e-01 1.53216854e-01 1.54024839e-01 1.54832840e-01 1.55640841e-01 1.56448841e-01 1.57256842e-01 1.58064842e-01 1.58872843e-01 1.59680843e-01 1.60488844e-01 1.61296844e-01 1.62104845e-01 1.62912831e-01 1.63720831e-01 1.64528832e-01 1.65336832e-01 1.66144833e-01 1.66952834e-01 1.67760834e-01 1.68568835e-01 1.69376835e-01 1.70184836e-01 1.70992836e-01 1.71800822e-01 1.72608823e-01 1.73416823e-01 1.74224824e-01 1.75032824e-01 1.75840825e-01 1.76648825e-01 1.77456826e-01 1.78264827e-01 1.79072827e-01 1.79880813e-01 1.80688813e-01 1.81496814e-01 1.82304814e-01 1.83112815e-01 1.83920816e-01 1.84728816e-01 1.85536817e-01 1.86344817e-01 1.87152818e-01 1.87960818e-01 1.88768804e-01 1.89576805e-01 1.90384805e-01 1.91192806e-01 1.92000806e-01 1.92808807e-01 1.93616807e-01 1.94424808e-01 1.95232809e-01 1.96040809e-01 1.96848810e-01 1.97656795e-01 1.98464796e-01 1.99272797e-01 2.00080797e-01 2.00888798e-01 2.01696798e-01 2.02504799e-01 2.03312799e-01 2.04120800e-01 2.04928800e-01 2.05736801e-01 2.06544787e-01 2.07352787e-01 2.08160788e-01 2.08968788e-01 2.09776789e-01 2.10584790e-01 2.11392790e-01 2.12200791e-01 2.13008791e-01 2.13816792e-01 2.14624792e-01 2.15432778e-01 2.16240779e-01 2.17048779e-01 2.17856780e-01 2.18664780e-01 2.19472781e-01 2.20280781e-01 2.21088782e-01 2.21896783e-01 2.22704783e-01 2.23512784e-01 2.24320769e-01 2.25128770e-01 2.25936770e-01 2.26744771e-01 2.27552772e-01 2.28360772e-01 2.29168773e-01 2.29976773e-01 2.30784774e-01 2.31592774e-01 2.32400775e-01 2.33208761e-01 2.34016761e-01 2.34824762e-01 2.35632762e-01 2.36440763e-01 2.37248763e-01 2.38056764e-01 2.38864765e-01 2.39672765e-01 2.40480766e-01 2.41288751e-01 2.42096752e-01 2.42904752e-01 2.43712753e-01 2.44520754e-01 2.45328754e-01 2.46136755e-01 2.46944755e-01 2.47752756e-01 2.48560756e-01 2.49368757e-01 2.50176758e-01 2.50984758e-01 2.51792759e-01 2.52600759e-01 2.53408760e-01 2.54216760e-01 2.55024731e-01 2.55832732e-01 2.56640732e-01 2.57448733e-01 2.58256733e-01 2.59064734e-01 2.59872735e-01 2.60680735e-01 2.61488736e-01 2.62296736e-01 2.63104737e-01 2.63912737e-01 2.64720738e-01 2.65528738e-01 2.66336739e-01 2.67144740e-01 2.67952740e-01 2.68760741e-01 2.69568741e-01 2.70376742e-01 2.71184742e-01 2.71992713e-01 2.72800714e-01 2.73608714e-01 2.74416715e-01 2.75224715e-01 2.76032716e-01 2.76840717e-01 2.77648717e-01 2.78456718e-01 2.79264718e-01 2.80072719e-01 2.80880719e-01 2.81688720e-01 2.82496721e-01 2.83304721e-01 2.84112722e-01 2.84920722e-01 2.85728723e-01 2.86536723e-01 2.87344724e-01 2.88152725e-01 2.88960725e-01 2.89768696e-01 2.90576696e-01 2.91384697e-01 2.92192698e-01 2.93000698e-01 2.93808699e-01 2.94616699e-01 2.95424700e-01 2.96232700e-01 2.97040701e-01 2.97848701e-01 2.98656702e-01 2.99464703e-01 3.00272703e-01 3.01080704e-01 3.01888704e-01 3.02696705e-01 3.03504705e-01 3.04312706e-01 3.05120707e-01 3.05928707e-01 3.06736708e-01 3.07544678e-01 3.08352679e-01 3.09160680e-01 3.09968680e-01 3.10776681e-01 3.11584681e-01 3.12392682e-01 3.13200682e-01 3.14008683e-01 3.14816684e-01 3.15624684e-01 3.16432685e-01 3.17240685e-01 3.18048686e-01 3.18856686e-01 3.19664687e-01 3.20472687e-01 3.21280688e-01 3.22088689e-01 3.22896689e-01 3.23704690e-01 3.24512690e-01 3.25320661e-01 3.26128662e-01 3.26936662e-01 3.27744663e-01 3.28552663e-01 3.29360664e-01 3.30168664e-01 3.30976665e-01 3.31784666e-01 3.32592666e-01 3.33400667e-01 3.34208667e-01 3.35016668e-01 3.35824668e-01 3.36632669e-01 3.37440670e-01 3.38248670e-01 3.39056671e-01 3.39864671e-01 3.40672672e-01 3.41480672e-01 3.42288643e-01 3.43096644e-01 3.43904644e-01 3.44712645e-01 3.45520645e-01 3.46328646e-01 3.47136647e-01 3.47944647e-01 3.48752648e-01 3.49560648e-01 3.50368649e-01 3.51176649e-01 3.51984650e-01 3.52792650e-01 3.53600651e-01 3.54408652e-01 3.55216652e-01 3.56024653e-01 3.56832653e-01 3.57640654e-01 3.58448654e-01 3.59256655e-01 3.60064626e-01 3.60872626e-01 3.61680627e-01 3.62488627e-01 3.63296628e-01 3.64104629e-01 3.64912629e-01 3.65720630e-01 3.66528630e-01 3.67336631e-01 3.68144631e-01 3.68952632e-01 3.69760633e-01 3.70568633e-01 3.71376634e-01 3.72184634e-01 3.72992635e-01 3.73800635e-01 3.74608636e-01 3.75416636e-01 3.76224637e-01 3.77032638e-01 3.77840608e-01 3.78648609e-01 3.79456609e-01 3.80264610e-01 3.81072611e-01 3.81880611e-01 3.82688612e-01 3.83496612e-01 3.84304613e-01 3.85112613e-01 3.85920614e-01 3.86728615e-01 3.87536615e-01 3.88344616e-01 3.89152616e-01 3.89960617e-01 3.90768617e-01 3.91576618e-01 3.92384619e-01 3.93192619e-01 3.94000620e-01 3.94808590e-01 3.95616591e-01 3.96424592e-01 3.97232592e-01 3.98040593e-01 3.98848593e-01 3.99656594e-01 4.00464594e-01 4.01272595e-01 4.02080595e-01 4.02888596e-01 4.03696597e-01 4.04504597e-01 4.05312598e-01 4.06120598e-01 4.06928599e-01 4.07736599e-01 4.08544600e-01 4.09352601e-01 4.10160601e-01 4.10968602e-01 4.11776602e-01 4.12584573e-01 4.13392574e-01 4.14200574e-01 4.15008575e-01 4.15816575e-01 4.16624576e-01 4.17432576e-01 4.18240577e-01 4.19048578e-01 4.19856578e-01 4.20664579e-01 4.21472579e-01 4.22280580e-01 4.23088580e-01 4.23896581e-01 4.24704581e-01 4.25512582e-01 4.26320583e-01 4.27128583e-01 4.27936584e-01 4.28744584e-01 4.29552585e-01 4.30360556e-01 4.31168556e-01 4.31976557e-01 4.32784557e-01 4.33592558e-01 4.34400558e-01 4.35208559e-01 4.36016560e-01 4.36824560e-01 4.37632561e-01 4.38440561e-01 4.39248562e-01 4.40056562e-01 4.40864563e-01 4.41672564e-01 4.42480564e-01 4.43288565e-01 4.44096565e-01 4.44904566e-01 4.45712566e-01 4.46520567e-01 4.47328568e-01 4.48136538e-01 4.48944539e-01 4.49752539e-01 4.50560540e-01 4.51368541e-01 4.52176541e-01 4.52984542e-01 4.53792542e-01 4.54600543e-01 4.55408543e-01 4.56216544e-01 4.57024544e-01 4.57832545e-01 4.58640546e-01 4.59448546e-01 4.60256547e-01 4.61064547e-01 4.61872548e-01 4.62680548e-01 4.63488549e-01 4.64296550e-01 4.65104520e-01 4.65912521e-01 4.66720521e-01 4.67528522e-01 4.68336523e-01 4.69144523e-01 4.69952524e-01 4.70760524e-01 4.71568525e-01 4.72376525e-01 4.73184526e-01 4.73992527e-01 4.74800527e-01 4.75608528e-01 4.76416528e-01 4.77224529e-01 4.78032529e-01 4.78840530e-01 4.79648530e-01 4.80456531e-01 4.81264532e-01 4.82072532e-01 4.82880503e-01 4.83688504e-01 4.84496504e-01 4.85304505e-01 4.86112505e-01 4.86920506e-01 4.87728506e-01 4.88536507e-01 4.89344507e-01 4.90152508e-01 4.90960509e-01 4.91768509e-01 4.92576510e-01 4.93384510e-01 4.94192511e-01 4.95000511e-01 4.95808512e-01 4.96616513e-01 4.97424513e-01 4.98232514e-01 4.99040514e-01 4.99848515e-01 5.00656486e-01 5.01464486e-01 5.02272487e-01 5.03080487e-01 5.03888488e-01 5.04696488e-01 5.05504489e-01 5.06312490e-01 5.07120490e-01 5.07928491e-01 5.08736491e-01 5.09544492e-01 5.10352492e-01 5.11160493e-01 5.11968493e-01 5.12776494e-01 5.13584495e-01 5.14392495e-01 5.15200496e-01 5.16008496e-01 5.16816497e-01 5.17624497e-01 5.18432498e-01 5.19240499e-01 5.20048499e-01 5.20856500e-01 5.21664500e-01 5.22472501e-01 5.23280501e-01 5.24088502e-01 5.24896502e-01 5.25704503e-01 5.26512444e-01 5.27320445e-01 5.28128445e-01 5.28936446e-01 5.29744446e-01 5.30552447e-01 5.31360447e-01 5.32168448e-01 5.32976449e-01 5.33784449e-01 5.34592450e-01 5.35400450e-01 5.36208451e-01 5.37016451e-01 5.37824452e-01 5.38632452e-01 5.39440453e-01 5.40248454e-01 5.41056454e-01 5.41864455e-01 5.42672455e-01 5.43480456e-01 5.44288456e-01 5.45096457e-01 5.45904458e-01 5.46712458e-01 5.47520459e-01 5.48328459e-01 5.49136460e-01 5.49944460e-01 5.50752461e-01 5.51560462e-01 5.52368462e-01 5.53176463e-01 5.53984463e-01 5.54792464e-01 5.55600464e-01 5.56408465e-01 5.57216465e-01 5.58024466e-01 5.58832467e-01 5.59640467e-01 5.60448468e-01 5.61256468e-01 5.62064409e-01 5.62872410e-01 5.63680410e-01 5.64488411e-01 5.65296412e-01 5.66104412e-01 5.66912413e-01 5.67720413e-01 5.68528414e-01 5.69336414e-01 5.70144415e-01 5.70952415e-01 5.71760416e-01 5.72568417e-01 5.73376417e-01 5.74184418e-01 5.74992418e-01 5.75800419e-01 5.76608419e-01 5.77416420e-01 5.78224421e-01 5.79032421e-01 5.79840422e-01 5.80648422e-01 5.81456423e-01 5.82264423e-01 5.83072424e-01 5.83880424e-01 5.84688425e-01 5.85496426e-01 5.86304426e-01 5.87112427e-01 5.87920427e-01 5.88728428e-01 5.89536428e-01 5.90344429e-01 5.91152430e-01 5.91960430e-01 5.92768431e-01 5.93576431e-01 5.94384432e-01 5.95192432e-01 5.96000433e-01 5.96808374e-01 5.97616374e-01 5.98424375e-01 5.99232376e-01 6.00040376e-01 6.00848377e-01 6.01656377e-01 6.02464378e-01 6.03272378e-01 6.04080379e-01 6.04888380e-01 6.05696380e-01 6.06504381e-01 6.07312381e-01 6.08120382e-01 6.08928382e-01 6.09736383e-01 6.10544384e-01 6.11352384e-01 6.12160385e-01 6.12968385e-01 6.13776386e-01 6.14584386e-01 6.15392387e-01 6.16200387e-01 6.17008388e-01 6.17816389e-01 6.18624389e-01 6.19432390e-01 6.20240390e-01 6.21048391e-01 6.21856391e-01 6.22664392e-01 6.23472393e-01 6.24280393e-01 6.25088394e-01 6.25896394e-01 6.26704395e-01 6.27512395e-01 6.28320396e-01 6.29128397e-01 6.29936397e-01 6.30744398e-01 6.31552398e-01 6.32360339e-01 6.33168340e-01 6.33976340e-01 6.34784341e-01 6.35592341e-01 6.36400342e-01 6.37208343e-01 6.38016343e-01 6.38824344e-01 6.39632344e-01 6.40440345e-01 6.41248345e-01 6.42056346e-01 6.42864347e-01 6.43672347e-01 6.44480348e-01 6.45288348e-01 6.46096349e-01 6.46904349e-01 6.47712350e-01 6.48520350e-01 6.49328351e-01 6.50136352e-01 6.50944352e-01 6.51752353e-01 6.52560353e-01 6.53368354e-01 6.54176354e-01 6.54984355e-01 6.55792356e-01 6.56600356e-01 6.57408357e-01 6.58216357e-01 6.59024358e-01 6.59832358e-01 6.60640359e-01 6.61448359e-01 6.62256360e-01 6.63064361e-01 6.63872361e-01 6.64680362e-01 6.65488362e-01 6.66296363e-01 6.67104304e-01 6.67912304e-01 6.68720305e-01 6.69528306e-01 6.70336306e-01 6.71144307e-01 6.71952307e-01 6.72760308e-01 6.73568308e-01 6.74376309e-01 6.75184309e-01 6.75992310e-01 6.76800311e-01 6.77608311e-01 6.78416312e-01 6.79224312e-01 6.80032313e-01 6.80840313e-01 6.81648314e-01 6.82456315e-01 6.83264315e-01 6.84072316e-01 6.84880316e-01 6.85688317e-01 6.86496317e-01 6.87304318e-01 6.88112319e-01 6.88920319e-01 6.89728320e-01 6.90536320e-01 6.91344321e-01 6.92152321e-01 6.92960322e-01 6.93768322e-01 6.94576323e-01 6.95384324e-01 6.96192324e-01 6.97000325e-01 6.97808325e-01 6.98616326e-01 6.99424326e-01 7.00232327e-01 7.01040328e-01 7.01848269e-01 7.02656269e-01 7.03464270e-01 7.04272270e-01 7.05080271e-01 7.05888271e-01 7.06696272e-01 7.07504272e-01 7.08312273e-01 7.09120274e-01 7.09928274e-01 7.10736275e-01 7.11544275e-01 7.12352276e-01 7.13160276e-01 7.13968277e-01 7.14776278e-01 7.15584278e-01 7.16392279e-01 7.17200279e-01 7.18008280e-01 7.18816280e-01 7.19624281e-01 7.20432281e-01 7.21240282e-01 7.22048283e-01 7.22856283e-01 7.23664284e-01 7.24472284e-01 7.25280285e-01 7.26088285e-01 7.26896286e-01 7.27704287e-01 7.28512287e-01 7.29320288e-01 7.30128288e-01 7.30936289e-01 7.31744289e-01 7.32552290e-01 7.33360291e-01 7.34168291e-01 7.34976292e-01 7.35784292e-01 7.36592293e-01 7.37400234e-01 7.38208234e-01 7.39016235e-01 7.39824235e-01 7.40632236e-01 7.41440237e-01 7.42248237e-01 7.43056238e-01 7.43864238e-01 7.44672239e-01 7.45480239e-01 7.46288240e-01 7.47096241e-01 7.47904241e-01 7.48712242e-01 7.49520242e-01 7.50328243e-01 7.51136243e-01 7.51944244e-01 7.52752244e-01 7.53560245e-01 7.54368246e-01 7.55176246e-01 7.55984247e-01 7.56792247e-01 7.57600248e-01 7.58408248e-01 7.59216249e-01 7.60024250e-01 7.60832250e-01 7.61640251e-01 7.62448251e-01 7.63256252e-01 7.64064252e-01 7.64872253e-01 7.65680254e-01 7.66488254e-01 7.67296255e-01 7.68104255e-01 7.68912256e-01 7.69720256e-01 7.70528257e-01 7.71336257e-01 7.72144198e-01 7.72952199e-01 7.73760200e-01 7.74568200e-01 7.75376201e-01 7.76184201e-01 7.76992202e-01 7.77800202e-01 7.78608203e-01 7.79416203e-01 7.80224204e-01 7.81032205e-01 7.81840205e-01 7.82648206e-01 7.83456206e-01 7.84264207e-01 7.85072207e-01 7.85880208e-01 7.86688209e-01 7.87496209e-01 7.88304210e-01 7.89112210e-01 7.89920211e-01 7.90728211e-01 7.91536212e-01 7.92344213e-01 7.93152213e-01 7.93960214e-01 7.94768214e-01 7.95576215e-01 7.96384215e-01 7.97192216e-01 7.98000216e-01 7.98808217e-01 7.99616218e-01 8.00424218e-01 8.01232219e-01 8.02040219e-01 8.02848220e-01 8.03656220e-01 8.04464221e-01 8.05272222e-01 8.06080222e-01 8.06888223e-01 8.07696164e-01 8.08504164e-01 8.09312165e-01 8.10120165e-01 8.10928166e-01 8.11736166e-01 8.12544167e-01 8.13352168e-01 8.14160168e-01 8.14968169e-01 8.15776169e-01 8.16584170e-01 8.17392170e-01 8.18200171e-01 8.19008172e-01 8.19816172e-01 8.20624173e-01 8.21432173e-01 8.22240174e-01 8.23048174e-01 8.23856175e-01 8.24664176e-01 8.25472176e-01 8.26280177e-01 8.27088177e-01 8.27896178e-01 8.28704178e-01 8.29512179e-01 8.30320179e-01 8.31128180e-01 8.31936181e-01 8.32744181e-01 8.33552182e-01 8.34360182e-01 8.35168183e-01 8.35976183e-01 8.36784184e-01 8.37592185e-01 8.38400185e-01 8.39208186e-01 8.40016186e-01 8.40824187e-01 8.41632187e-01 8.42440128e-01 8.43248129e-01 8.44056129e-01 8.44864130e-01 8.45672131e-01 8.46480131e-01 8.47288132e-01 8.48096132e-01 8.48904133e-01 8.49712133e-01 8.50520134e-01 8.51328135e-01 8.52136135e-01 8.52944136e-01 8.53752136e-01 8.54560137e-01 8.55368137e-01 8.56176138e-01 8.56984138e-01 8.57792139e-01 8.58600140e-01 8.59408140e-01 8.60216141e-01 8.61024141e-01 8.61832142e-01 8.62640142e-01 8.63448143e-01 8.64256144e-01 8.65064144e-01 8.65872145e-01 8.66680145e-01 8.67488146e-01 8.68296146e-01 8.69104147e-01 8.69912148e-01 8.70720148e-01 8.71528149e-01 8.72336149e-01 8.73144150e-01 8.73952150e-01 8.74760151e-01 8.75568151e-01 8.76376152e-01 8.77184153e-01 8.77992094e-01 8.78800094e-01 8.79608095e-01 8.80416095e-01 8.81224096e-01 8.82032096e-01 8.82840097e-01 8.83648098e-01 8.84456098e-01 8.85264099e-01 8.86072099e-01 8.86880100e-01 8.87688100e-01 8.88496101e-01 8.89304101e-01 8.90112102e-01 8.90920103e-01 8.91728103e-01 8.92536104e-01 8.93344104e-01 8.94152105e-01 8.94960105e-01 8.95768106e-01 8.96576107e-01 8.97384107e-01 8.98192108e-01 8.99000108e-01 8.99808109e-01 9.00616109e-01 9.01424110e-01 9.02232111e-01 9.03040111e-01 9.03848112e-01 9.04656112e-01 9.05464113e-01 9.06272113e-01 9.07080114e-01 9.07888114e-01 9.08696115e-01 9.09504116e-01 9.10312116e-01 9.11120117e-01 9.11928117e-01 9.12736058e-01 9.13544059e-01 9.14352059e-01 9.15160060e-01 9.15968060e-01 9.16776061e-01 9.17584062e-01 9.18392062e-01 9.19200063e-01 9.20008063e-01 9.20816064e-01 9.21624064e-01 9.22432065e-01 9.23240066e-01 9.24048066e-01 9.24856067e-01 9.25664067e-01 9.26472068e-01 9.27280068e-01 9.28088069e-01 9.28896070e-01 9.29704070e-01 9.30512071e-01 9.31320071e-01 9.32128072e-01 9.32936072e-01 9.33744073e-01 9.34552073e-01 9.35360074e-01 9.36168075e-01 9.36976075e-01 9.37784076e-01 9.38592076e-01 9.39400077e-01 9.40208077e-01 9.41016078e-01 9.41824079e-01 9.42632079e-01 9.43440080e-01 9.44248080e-01 9.45056081e-01 9.45864081e-01 9.46672082e-01 9.47480023e-01 9.48288023e-01 9.49096024e-01 9.49904025e-01 9.50712025e-01 9.51520026e-01 9.52328026e-01 9.53136027e-01 9.53944027e-01 9.54752028e-01 9.55560029e-01 9.56368029e-01 9.57176030e-01 9.57984030e-01 9.58792031e-01 9.59600031e-01 9.60408032e-01 9.61216033e-01 9.62024033e-01 9.62832034e-01 9.63640034e-01 9.64448035e-01 9.65256035e-01 9.66064036e-01 9.66872036e-01 9.67680037e-01 9.68488038e-01 9.69296038e-01 9.70104039e-01 9.70912039e-01 9.71720040e-01 9.72528040e-01 9.73336041e-01 9.74144042e-01 9.74952042e-01 9.75760043e-01 9.76568043e-01 9.77376044e-01 9.78184044e-01 9.78992045e-01 9.79800045e-01 9.80608046e-01 9.81416047e-01 9.82224047e-01 9.83031988e-01 9.83839989e-01 9.84647989e-01 9.85455990e-01 9.86263990e-01 9.87071991e-01 9.87879992e-01 9.88687992e-01 9.89495993e-01 9.90303993e-01 9.91111994e-01 9.91919994e-01 9.92727995e-01 9.93535995e-01 9.94343996e-01 9.95151997e-01 9.95959997e-01 9.96767998e-01 9.97575998e-01 9.98383999e-01 9.99191999e-01 1.00000000e+00 
            </Histogram>
            <HistogramBinning NBins="1238">
              -1.00010002e+00 -1.00000000e+00 -9.97782767e-01 -9.95786786e-01 -9.94769931e-01 -9.93411541e-01 -9.92055953e-01 -9.90360320e-01 -9.89429533e-01 -9.88968909e-01 -9.88176703e-01 -9.87380326e-01 -9.86488998e-01 -9.85522509e-01 -9.84635472e-01 -9.84114408e-01 -9.83271062e-01 -9.82702315e-01 -9.81956124e-01 -9.81563270e-01 -9.80654061e-01 -9.79879022e-01 -9.79076028e-01 -9.78491366e-01 -9.77618933e-01 -9.77254093e-01 -9.76770639e-01 -9.75994408e-01 -9.75481868e-01 -9.74697888e-01 -9.73516822e-01 -9.72561121e-01 -9.71818507e-01 -9.71104801e-01 -9.70631480e-01 -9.70168471e-01 -9.69499111e-01 -9.69040811e-01 -9.68578398e-01 -9.67894197e-01 -9.67514038e-01 -9.66566563e-01 -9.65778351e-01 -9.65179741e-01 -9.64686155e-01 -9.63973820e-01 -9.63327885e-01 -9.62032318e-01 -9.61381912e-01 -9.60327864e-01 -9.59511399e-01 -9.58841801e-01 -9.58307862e-01 -9.57865953e-01 -9.57284808e-01 -9.56674933e-01 -9.56173420e-01 -9.55318272e-01 -9.54657674e-01 -9.54194009e-01 -9.53668714e-01 -9.53259885e-01 -9.53049719e-01 -9.52459276e-01 -9.51909721e-01 -9.51111913e-01 -9.50709283e-01 -9.50202346e-01 -9.49558854e-01 -9.48990941e-01 -9.48650241e-01 -9.48142052e-01 -9.47269678e-01 -9.46625829e-01 -9.46171224e-01 -9.45678353e-01 -9.44926262e-01 -9.44556475e-01 -9.43945169e-01 -9.43735778e-01 -9.42857802e-01 -9.42300737e-01 -9.41907167e-01 -9.41190541e-01 -9.40461755e-01 -9.39967692e-01 -9.39244628e-01 -9.38671947e-01 -9.38166738e-01 -9.37794030e-01 -9.37353730e-01 -9.36773658e-01 -9.36150730e-01 -9.35805261e-01 -9.35497642e-01 -9.34955776e-01 -9.34706807e-01 -9.34090734e-01 -9.33256686e-01 -9.32885647e-01 -9.32230592e-01 -9.31630075e-01 -9.31298375e-01 -9.31013227e-01 -9.30695355e-01 -9.30006683e-01 -9.29235995e-01 -9.28871989e-01 -9.28180039e-01 -9.27812934e-01 -9.27547932e-01 -9.27393675e-01 -9.26998377e-01 -9.26320672e-01 -9.25701201e-01 -9.25490141e-01 -9.25230384e-01 -9.24602747e-01 -9.24142957e-01 -9.23648357e-01 -9.23112929e-01 -9.22703207e-01 -9.22157407e-01 -9.21527386e-01 -9.21071649e-01 -9.20546234e-01 -9.20276463e-01 -9.19932485e-01 -9.19403434e-01 -9.19045985e-01 -9.18830514e-01 -9.18269694e-01 -9.17853117e-01 -9.17328656e-01 -9.16990876e-01 -9.16490555e-01 -9.16250408e-01 -9.15884376e-01 -9.15591598e-01 -9.15139079e-01 -9.14811134e-01 -9.14174438e-01 -9.13359940e-01 -9.12975013e-01 -9.12576437e-01 -9.12137210e-01 -9.11707819e-01 -9.11333203e-01 -9.10842299e-01 -9.10623968e-01 -9.10071850e-01 -9.09663916e-01 -9.08988059e-01 -9.08582509e-01 -9.07841206e-01 -9.07278717e-01 -9.06755626e-01 -9.06197548e-01 -9.05878127e-01 -9.05428708e-01 -9.04748201e-01 -9.04250562e-01 -9.03514922e-01 -9.03105497e-01 -9.02576149e-01 -9.01910067e-01 -9.01524663e-01 -9.00798440e-01 -9.00022864e-01 -8.99572849e-01 -8.98607075e-01 -8.98029804e-01 -8.97575676e-01 -8.97072554e-01 -8.96683812e-01 -8.96141291e-01 -8.95509362e-01 -8.94886494e-01 -8.94325912e-01 -8.93360436e-01 -8.92865241e-01 -8.92391503e-01 -8.91787231e-01 -8.91263723e-01 -8.90993714e-01 -8.90490770e-01 -8.89850795e-01 -8.89423490e-01 -8.88902783e-01 -8.88385892e-01 -8.87809336e-01 -8.87327194e-01 -8.86925817e-01 -8.86395395e-01 -8.85739267e-01 -8.85272205e-01 -8.84877264e-01 -8.84198308e-01 -8.83822322e-01 -8.83634269e-01 -8.83199453e-01 -8.82788122e-01 -8.82258713e-01 -8.81774783e-01 -8.81300449e-01 -8.80759835e-01 -8.80267739e-01 -8.79973054e-01 -8.79472971e-01 -8.79100382e-01 -8.78224313e-01 -8.77737641e-01 -8.77224565e-01 -8.76841426e-01 -8.76425624e-01 -8.76035810e-01 -8.75218272e-01 -8.74878168e-01 -8.74124229e-01 -8.73420954e-01 -8.72924685e-01 -8.72397482e-01 -8.71756852e-01 -8.71475577e-01 -8.70741427e-01 -8.70362639e-01 -8.69919240e-01 -8.69305909e-01 -8.69063139e-01 -8.68368864e-01 -8.68094683e-01 -8.67676854e-01 -8.67178082e-01 -8.66706789e-01 -8.66262078e-01 -8.66008520e-01 -8.65563869e-01 -8.65264535e-01 -8.64826202e-01 -8.64248812e-01 -8.63564193e-01 -8.62960637e-01 -8.62528384e-01 -8.62161398e-01 -8.61562014e-01 -8.61207247e-01 -8.60616565e-01 -8.60050201e-01 -8.59364390e-01 -8.58725429e-01 -8.58192265e-01 -8.57540071e-01 -8.56813490e-01 -8.55727673e-01 -8.55273068e-01 -8.54638040e-01 -8.53770435e-01 -8.52967381e-01 -8.52612555e-01 -8.52078557e-01 -8.51505101e-01 -8.51108015e-01 -8.50756526e-01 -8.50324333e-01 -8.49812865e-01 -8.49452138e-01 -8.48970890e-01 -8.48456144e-01 -8.47539663e-01 -8.47123384e-01 -8.46593440e-01 -8.46229196e-01 -8.45660210e-01 -8.45082641e-01 -8.44625771e-01 -8.44037890e-01 -8.43648076e-01 -8.43115866e-01 -8.42604578e-01 -8.42150927e-01 -8.41484308e-01 -8.40967298e-01 -8.40112329e-01 -8.39575768e-01 -8.38907003e-01 -8.38228166e-01 -8.37388039e-01 -8.36651325e-01 -8.36306930e-01 -8.36041868e-01 -8.35245848e-01 -8.34942520e-01 -8.34318757e-01 -8.33962381e-01 -8.33430767e-01 -8.32888842e-01 -8.32085729e-01 -8.31489563e-01 -8.30536127e-01 -8.30145001e-01 -8.29599142e-01 -8.29206705e-01 -8.28806818e-01 -8.27737212e-01 -8.27247858e-01 -8.26446593e-01 -8.25828552e-01 -8.25415254e-01 -8.24957728e-01 -8.24595511e-01 -8.24011683e-01 -8.23496222e-01 -8.22577894e-01 -8.21783900e-01 -8.20898056e-01 -8.20324481e-01 -8.19904268e-01 -8.18973541e-01 -8.18525434e-01 -8.18066120e-01 -8.17759216e-01 -8.17432642e-01 -8.16895127e-01 -8.16268504e-01 -8.15770745e-01 -8.15056205e-01 -8.14604521e-01 -8.14056039e-01 -8.13560367e-01 -8.12915683e-01 -8.12494516e-01 -8.12091708e-01 -8.11694920e-01 -8.10860932e-01 -8.10485601e-01 -8.09747398e-01 -8.09369743e-01 -8.08907151e-01 -8.08366537e-01 -8.08095157e-01 -8.07608724e-01 -8.07013750e-01 -8.06651175e-01 -8.06121826e-01 -8.05321693e-01 -8.04680288e-01 -8.04150105e-01 -8.03640544e-01 -8.03261042e-01 -8.02218258e-01 -8.01645756e-01 -8.01016867e-01 -8.00201297e-01 -7.99397051e-01 -7.98533022e-01 -7.97916114e-01 -7.97070503e-01 -7.96441972e-01 -7.95868635e-01 -7.95556426e-01 -7.95015454e-01 -7.94284523e-01 -7.93939829e-01 -7.93054819e-01 -7.92498350e-01 -7.91886330e-01 -7.91232526e-01 -7.90552139e-01 -7.89973855e-01 -7.89255857e-01 -7.88626373e-01 -7.88009167e-01 -7.87421465e-01 -7.86868215e-01 -7.86463261e-01 -7.85785258e-01 -7.85483837e-01 -7.84821033e-01 -7.84672737e-01 -7.84165382e-01 -7.83598542e-01 -7.83094049e-01 -7.81946480e-01 -7.81458914e-01 -7.80763268e-01 -7.80389667e-01 -7.79413581e-01 -7.79048085e-01 -7.78593302e-01 -7.77709603e-01 -7.76659131e-01 -7.76034534e-01 -7.75264382e-01 -7.74863124e-01 -7.74204612e-01 -7.73621559e-01 -7.73079038e-01 -7.72508562e-01 -7.71884918e-01 -7.71350741e-01 -7.70723939e-01 -7.69776523e-01 -7.69451976e-01 -7.68864989e-01 -7.68558145e-01 -7.68069625e-01 -7.67589808e-01 -7.67146528e-01 -7.66550422e-01 -7.66093671e-01 -7.65155792e-01 -7.64247119e-01 -7.63732433e-01 -7.63083518e-01 -7.62453973e-01 -7.61901200e-01 -7.61655390e-01 -7.61186779e-01 -7.60457754e-01 -7.59554148e-01 -7.58929491e-01 -7.58462787e-01 -7.57942617e-01 -7.57524014e-01 -7.57066488e-01 -7.56382287e-01 -7.55344152e-01 -7.54231572e-01 -7.53531575e-01 -7.52778053e-01 -7.51960516e-01 -7.51213610e-01 -7.50885963e-01 -7.50603497e-01 -7.50019491e-01 -7.49498844e-01 -7.48803973e-01 -7.48114169e-01 -7.47563601e-01 -7.47119188e-01 -7.46573269e-01 -7.45907068e-01 -7.45502710e-01 -7.44608998e-01 -7.44130075e-01 -7.43481994e-01 -7.42967963e-01 -7.42415786e-01 -7.41761029e-01 -7.41164446e-01 -7.40617037e-01 -7.39973187e-01 -7.39458561e-01 -7.38882422e-01 -7.37857461e-01 -7.36884117e-01 -7.36288905e-01 -7.35684812e-01 -7.35036254e-01 -7.34470844e-01 -7.33384013e-01 -7.32665539e-01 -7.32077003e-01 -7.31514752e-01 -7.30881929e-01 -7.30346918e-01 -7.29814470e-01 -7.28744745e-01 -7.28108048e-01 -7.27408051e-01 -7.26966321e-01 -7.26387024e-01 -7.25693703e-01 -7.25254059e-01 -7.24718809e-01 -7.23922849e-01 -7.23234057e-01 -7.22568095e-01 -7.21767664e-01 -7.21354842e-01 -7.20706046e-01 -7.20219851e-01 -7.19592690e-01 -7.19116747e-01 -7.18622267e-01 -7.18079984e-01 -7.17415154e-01 -7.16869831e-01 -7.16176033e-01 -7.15211034e-01 -7.14379489e-01 -7.13897943e-01 -7.12319434e-01 -7.11668134e-01 -7.11092412e-01 -7.10558176e-01 -7.10057974e-01 -7.09235966e-01 -7.08457351e-01 -7.07773030e-01 -7.07046032e-01 -7.06552386e-01 -7.05923676e-01 -7.05580592e-01 -7.04518318e-01 -7.03672349e-01 -7.03201711e-01 -7.02538848e-01 -7.01844752e-01 -7.01453149e-01 -7.00918436e-01 -7.00187981e-01 -6.99711740e-01 -6.99303031e-01 -6.98765755e-01 -6.98006928e-01 -6.97188973e-01 -6.96525156e-01 -6.95918977e-01 -6.95428848e-01 -6.94943428e-01 -6.94372952e-01 -6.93706274e-01 -6.93052649e-01 -6.92426562e-01 -6.91587090e-01 -6.91079736e-01 -6.90730572e-01 -6.90188289e-01 -6.89861536e-01 -6.89506590e-01 -6.88790798e-01 -6.87782407e-01 -6.87269926e-01 -6.86925411e-01 -6.86384439e-01 -6.85934186e-01 -6.84824944e-01 -6.83604121e-01 -6.83026075e-01 -6.82318985e-01 -6.81653738e-01 -6.80876970e-01 -6.80312037e-01 -6.79626107e-01 -6.79091096e-01 -6.78691864e-01 -6.78077817e-01 -6.77177429e-01 -6.76386774e-01 -6.76099360e-01 -6.75490975e-01 -6.74553990e-01 -6.73932195e-01 -6.73601627e-01 -6.73095584e-01 -6.72370791e-01 -6.71608090e-01 -6.71088636e-01 -6.70184374e-01 -6.69528127e-01 -6.68984830e-01 -6.68433249e-01 -6.67783260e-01 -6.67151570e-01 -6.66500330e-01 -6.66139245e-01 -6.65685833e-01 -6.65120721e-01 -6.64088190e-01 -6.63343787e-01 -6.62457526e-01 -6.62060440e-01 -6.61219060e-01 -6.60508037e-01 -6.59792900e-01 -6.59309626e-01 -6.58747256e-01 -6.57886922e-01 -6.57215476e-01 -6.56469107e-01 -6.55567288e-01 -6.54958129e-01 -6.54324114e-01 -6.53676212e-01 -6.52670503e-01 -6.52168989e-01 -6.51681304e-01 -6.51134372e-01 -6.49816751e-01 -6.49071515e-01 -6.47907972e-01 -6.47281110e-01 -6.46314740e-01 -6.45600379e-01 -6.44829094e-01 -6.44089580e-01 -6.43459201e-01 -6.42058134e-01 -6.40974998e-01 -6.40183568e-01 -6.39749467e-01 -6.39131308e-01 -6.38555765e-01 -6.37420535e-01 -6.36893988e-01 -6.36449993e-01 -6.35812223e-01 -6.34900093e-01 -6.33557320e-01 -6.33172572e-01 -6.32666707e-01 -6.31916106e-01 -6.31374836e-01 -6.30154192e-01 -6.29319072e-01 -6.28499746e-01 -6.27915204e-01 -6.27517700e-01 -6.27043247e-01 -6.26335621e-01 -6.25533104e-01 -6.24687731e-01 -6.23808384e-01 -6.23035491e-01 -6.22455597e-01 -6.21317148e-01 -6.20915055e-01 -6.20265603e-01 -6.19687796e-01 -6.18928432e-01 -6.18139982e-01 -6.17226839e-01 -6.16708100e-01 -6.15869522e-01 -6.14579558e-01 -6.13774002e-01 -6.12565994e-01 -6.11696720e-01 -6.11096501e-01 -6.10495329e-01 -6.09849930e-01 -6.08962655e-01 -6.08369350e-01 -6.07804418e-01 -6.06895983e-01 -6.06137037e-01 -6.05524302e-01 -6.04828954e-01 -6.03961468e-01 -6.03277445e-01 -6.02494240e-01 -6.01903677e-01 -6.01476669e-01 -6.00431383e-01 -5.99377394e-01 -5.98750830e-01 -5.97731590e-01 -5.97107649e-01 -5.95525503e-01 -5.94177186e-01 -5.92980564e-01 -5.92252254e-01 -5.91436505e-01 -5.90781689e-01 -5.89567602e-01 -5.88596225e-01 -5.88062286e-01 -5.87140322e-01 -5.86582065e-01 -5.85574627e-01 -5.84602773e-01 -5.83833337e-01 -5.82828999e-01 -5.82023680e-01 -5.80937326e-01 -5.79598784e-01 -5.78948259e-01 -5.78303397e-01 -5.77759147e-01 -5.76975644e-01 -5.76299608e-01 -5.75495958e-01 -5.74796438e-01 -5.73609233e-01 -5.72538912e-01 -5.71692705e-01 -5.70567966e-01 -5.69533587e-01 -5.68904996e-01 -5.67852974e-01 -5.66498280e-01 -5.65760136e-01 -5.64690709e-01 -5.63895464e-01 -5.63212156e-01 -5.62353373e-01 -5.61699688e-01 -5.60847402e-01 -5.59702635e-01 -5.58110237e-01 -5.56900203e-01 -5.55996299e-01 -5.55255771e-01 -5.54229498e-01 -5.53297043e-01 -5.52326620e-01 -5.51273704e-01 -5.50222754e-01 -5.49278498e-01 -5.48457503e-01 -5.47891378e-01 -5.47144711e-01 -5.46236277e-01 -5.45474887e-01 -5.44349074e-01 -5.43433666e-01 -5.42818904e-01 -5.42100906e-01 -5.41298330e-01 -5.40467620e-01 -5.39557576e-01 -5.38495779e-01 -5.37797570e-01 -5.37028432e-01 -5.36619008e-01 -5.36135554e-01 -5.35119653e-01 -5.34235477e-01 -5.33112407e-01 -5.32112181e-01 -5.31383514e-01 -5.31028211e-01 -5.30494571e-01 -5.29693604e-01 -5.28960764e-01 -5.28224587e-01 -5.27179420e-01 -5.26453018e-01 -5.25460243e-01 -5.24181962e-01 -5.23176968e-01 -5.22178471e-01 -5.21503806e-01 -5.20663977e-01 -5.19556880e-01 -5.18230498e-01 -5.16876280e-01 -5.16323090e-01 -5.15480638e-01 -5.14819980e-01 -5.13794541e-01 -5.13180375e-01 -5.12286782e-01 -5.11582613e-01 -5.10884106e-01 -5.09956777e-01 -5.08993983e-01 -5.07440150e-01 -5.06612599e-01 -5.05589008e-01 -5.04944682e-01 -5.03717840e-01 -5.02972364e-01 -5.01659751e-01 -5.00043988e-01 -4.98607755e-01 -4.97905970e-01 -4.97085094e-01 -4.96003389e-01 -4.95365798e-01 -4.94143009e-01 -4.93356109e-01 -4.92485523e-01 -4.91116881e-01 -4.89950299e-01 -4.88926947e-01 -4.88146424e-01 -4.86861765e-01 -4.85308468e-01 -4.83940423e-01 -4.82831895e-01 -4.81760383e-01 -4.81171310e-01 -4.80368555e-01 -4.79368925e-01 -4.78688836e-01 -4.78118300e-01 -4.77104783e-01 -4.75832522e-01 -4.75226760e-01 -4.74517107e-01 -4.73736823e-01 -4.72735941e-01 -4.71697211e-01 -4.70712721e-01 -4.69129324e-01 -4.68081295e-01 -4.66847420e-01 -4.65367973e-01 -4.64322209e-01 -4.63131368e-01 -4.61701751e-01 -4.60673928e-01 -4.59826350e-01 -4.58908319e-01 -4.57619369e-01 -4.56781924e-01 -4.56052423e-01 -4.55137670e-01 -4.54165101e-01 -4.53508914e-01 -4.52803969e-01 -4.52116549e-01 -4.50816274e-01 -4.49968874e-01 -4.49252844e-01 -4.48483288e-01 -4.47611451e-01 -4.46351886e-01 -4.45413530e-01 -4.43841875e-01 -4.42638695e-01 -4.41665351e-01 -4.40229416e-01 -4.39398289e-01 -4.38101649e-01 -4.36974645e-01 -4.35432851e-01 -4.34576750e-01 -4.32494044e-01 -4.31480289e-01 -4.30797756e-01 -4.29254174e-01 -4.27562296e-01 -4.26611423e-01 -4.25445616e-01 -4.24323142e-01 -4.22641218e-01 -4.21196043e-01 -4.19134855e-01 -4.17929053e-01 -4.15974975e-01 -4.14900482e-01 -4.13592815e-01 -4.12497103e-01 -4.11106467e-01 -4.09871280e-01 -4.09042239e-01 -4.07188118e-01 -4.06448305e-01 -4.04931843e-01 -4.02721882e-01 -4.01993692e-01 -4.01224911e-01 -3.99473250e-01 -3.98084223e-01 -3.97086382e-01 -3.96248400e-01 -3.95699978e-01 -3.94311607e-01 -3.92841160e-01 -3.91669273e-01 -3.90600085e-01 -3.89671028e-01 -3.88363183e-01 -3.87419105e-01 -3.85739744e-01 -3.83950531e-01 -3.82271588e-01 -3.80628288e-01 -3.79842758e-01 -3.78321290e-01 -3.76884043e-01 -3.75606120e-01 -3.74902487e-01 -3.73690963e-01 -3.72811913e-01 -3.70729387e-01 -3.69261086e-01 -3.68075132e-01 -3.66586626e-01 -3.65199029e-01 -3.64199638e-01 -3.62561345e-01 -3.60238552e-01 -3.59453201e-01 -3.58097196e-01 -3.56769800e-01 -3.55119646e-01 -3.54427338e-01 -3.52919519e-01 -3.52211177e-01 -3.50452960e-01 -3.49077404e-01 -3.47499549e-01 -3.46149504e-01 -3.45633447e-01 -3.44719172e-01 -3.42966974e-01 -3.41725051e-01 -3.40339243e-01 -3.38197231e-01 -3.36167276e-01 -3.34839821e-01 -3.33113134e-01 -3.31471801e-01 -3.30378413e-01 -3.28462183e-01 -3.27406466e-01 -3.26118350e-01 -3.25325131e-01 -3.23854983e-01 -3.22724581e-01 -3.21387351e-01 -3.19850564e-01 -3.17594945e-01 -3.16591024e-01 -3.15308213e-01 -3.13246191e-01 -3.11429799e-01 -3.10130656e-01 -3.08670878e-01 -3.07922542e-01 -3.06764185e-01 -3.05588543e-01 -3.04177940e-01 -3.02937746e-01 -3.01252186e-01 -3.00036490e-01 -2.97313750e-01 -2.95968831e-01 -2.93785930e-01 -2.92713642e-01 -2.90716767e-01 -2.89305270e-01 -2.88097560e-01 -2.86468506e-01 -2.84772933e-01 -2.83050299e-01 -2.80496776e-01 -2.78700590e-01 -2.76867449e-01 -2.75458992e-01 -2.74185538e-01 -2.72779286e-01 -2.71412611e-01 -2.69349039e-01 -2.67213762e-01 -2.65314758e-01 -2.63455987e-01 -2.61842668e-01 -2.59770930e-01 -2.57519960e-01 -2.55737841e-01 -2.54552901e-01 -2.53376782e-01 -2.51631260e-01 -2.50883520e-01 -2.49636173e-01 -2.48556912e-01 -2.47149765e-01 -2.45934904e-01 -2.44219959e-01 -2.42929995e-01 -2.41329670e-01 -2.39945889e-01 -2.37715542e-01 -2.35556185e-01 -2.34292805e-01 -2.31364846e-01 -2.29585886e-01 -2.27546275e-01 -2.26349235e-01 -2.25338161e-01 -2.23304987e-01 -2.22064197e-01 -2.19894350e-01 -2.18250573e-01 -2.16477394e-01 -2.14580119e-01 -2.12806761e-01 -2.10496128e-01 -2.09212601e-01 -2.08099186e-01 -2.06420481e-01 -2.04502761e-01 -2.03230560e-01 -2.00736165e-01 -1.98101997e-01 -1.96924210e-01 -1.95390940e-01 -1.94080770e-01 -1.92396045e-01 -1.90110564e-01 -1.87966287e-01 -1.86515152e-01 -1.84821606e-01 -1.84079647e-01 -1.82330370e-01 -1.80759311e-01 -1.78958952e-01 -1.77213430e-01 -1.74745977e-01 -1.72921181e-01 -1.71520948e-01 -1.68456852e-01 -1.65323973e-01 -1.64262950e-01 -1.61695957e-01 -1.59992099e-01 -1.57362759e-01 -1.54511213e-01 -1.51153088e-01 -1.49296820e-01 -1.46368146e-01 -1.44663453e-01 -1.43150032e-01 -1.40884221e-01 -1.38824821e-01 -1.36002004e-01 -1.34694040e-01 -1.32640660e-01 -1.30290508e-01 -1.27982140e-01 -1.25999928e-01 -1.23034060e-01 -1.20230913e-01 -1.18071079e-01 -1.16388559e-01 -1.14512503e-01 -1.12665474e-01 -1.09906733e-01 -1.07128859e-01 -1.04196012e-01 -1.02890909e-01 -1.00212872e-01 -9.87415314e-02 -9.58354473e-02 -9.32319164e-02 -9.08131003e-02 -8.77223015e-02 -8.65324736e-02 -8.43881369e-02 -8.11269879e-02 -7.95339346e-02 -7.75505304e-02 -7.58717656e-02 -7.40014911e-02 -7.19211698e-02 -7.09061027e-02 -6.84959292e-02 -6.73992634e-02 -6.45452142e-02 -6.24029040e-02 -6.01432323e-02 -5.77651262e-02 -5.60008287e-02 -5.39019704e-02 -5.23946881e-02 -5.09213209e-02 -4.81458902e-02 -4.35561538e-02 -3.97109985e-02 -3.63855362e-02 -3.31591368e-02 -3.09554935e-02 -2.93400288e-02 -2.65606046e-02 -2.38345861e-02 -2.18473077e-02 -1.87524557e-02 -1.56999826e-02 -1.21599436e-02 -8.91888142e-03 -6.51258230e-03 -4.51517105e-03 -1.79439783e-03 1.41894817e-03 3.33738327e-03 4.58562374e-03 7.46035576e-03 9.98961926e-03 1.30387545e-02 1.70903206e-02 2.11206675e-02 2.49218941e-02 2.84329653e-02 3.21692228e-02 3.36762667e-02 3.66753340e-02 4.12827730e-02 4.33735847e-02 4.55726385e-02 4.96721268e-02 5.60468435e-02 5.95719814e-02 6.43192530e-02 6.59025908e-02 6.94508553e-02 7.10932016e-02 7.41231441e-02 7.66801834e-02 7.85949230e-02 8.22527409e-02 8.55578184e-02 8.85740519e-02 9.37390327e-02 9.76403952e-02 1.01392627e-01 1.07658982e-01 1.12190485e-01 1.14306092e-01 1.18348718e-01 1.23409629e-01 1.27002239e-01 1.33283377e-01 1.37993693e-01 1.41062140e-01 1.44087195e-01 1.47766471e-01 1.51063561e-01 1.55586004e-01 1.59532309e-01 1.61877275e-01 1.67496204e-01 1.70793772e-01 1.74309015e-01 1.77871466e-01 1.82065368e-01 1.88579082e-01 1.93924665e-01 2.01539159e-01 2.05168962e-01 2.09618926e-01 2.17644453e-01 2.20641375e-01 2.25240231e-01 2.30529189e-01 2.35865235e-01 2.38145590e-01 2.42047429e-01 2.46933579e-01 2.53404975e-01 2.59398103e-01 2.65205503e-01 2.67453074e-01 2.73743272e-01 2.77762651e-01 2.80578852e-01 2.83079982e-01 2.87498355e-01 2.93998837e-01 3.02529931e-01 3.10604334e-01 3.15934539e-01 3.24652433e-01 3.29916120e-01 3.38719249e-01 3.42206120e-01 3.47438455e-01 3.53645682e-01 3.58039379e-01 3.61410379e-01 3.65136981e-01 3.67632031e-01 3.73971224e-01 3.81000042e-01 3.86816382e-01 3.90663147e-01 3.98792863e-01 4.06993151e-01 4.13829327e-01 4.18694496e-01 4.25493717e-01 4.34581876e-01 4.42666054e-01 4.49075460e-01 4.56392527e-01 4.63572502e-01 4.72986221e-01 4.81201172e-01 4.87339139e-01 4.91413951e-01 4.97845650e-01 5.02503037e-01 5.09466290e-01 5.16297817e-01 5.22582889e-01 5.32666326e-01 5.35375357e-01 5.39243698e-01 5.47343731e-01 5.52306771e-01 5.60843825e-01 5.68374038e-01 5.77181458e-01 5.86787343e-01 5.95368385e-01 6.06366038e-01 6.14669561e-01 6.23245358e-01 6.29729152e-01 6.37830615e-01 6.45338416e-01 6.52258515e-01 6.58572435e-01 6.69814348e-01 6.79281712e-01 6.84095740e-01 6.88148856e-01 6.96503282e-01 7.07491040e-01 7.19537973e-01 7.30209351e-01 7.41232514e-01 7.50258565e-01 7.65649080e-01 7.76442170e-01 7.87731290e-01 7.94813633e-01 8.03371668e-01 8.12519789e-01 8.26075912e-01 8.35634470e-01 8.45197201e-01 8.61067176e-01 8.69336128e-01 8.78390789e-01 8.86236906e-01 8.97926092e-01 9.10380960e-01 9.29619312e-01 9.45285797e-01 9.56657529e-01 9.65875864e-01 9.74264622e-01 9.84014988e-01 1.00000000e+00 
            </HistogramBinning>
          </PDF>
        </CumulativePDF_cls2>
      </Variable>
      <Variable VarIndex="1">
        <CumulativePDF_cls0>
          <PDF Name="GaussTransform var1 cls0" MinNSmooth="0" MaxNSmooth="0" InterpolMethod="1" KDE_type="0" KDE_iter="1" KDE_border="1" KDE_finefactor="0.0000000000000000e+00">
            <Histogram Name="Cumulative_Var1_cls0_original" NBins="238" XMin="8.5651445388793945e-01" XMax="1.0000000000000000e+00" HasEquidistantBins="0">
              3.05102579e-03 6.83850609e-03 1.10205151e-02 1.52551290e-02 1.94634404e-02 2.36717518e-02 2.78800633e-02 3.20883729e-02 3.62966843e-02 4.05049957e-02 4.47133072e-02 4.89216186e-02 5.31299300e-02 5.73382415e-02 6.15465529e-02 6.57548681e-02 6.99631795e-02 7.41714910e-02 7.83798024e-02 8.25881138e-02 8.67964253e-02 9.10047367e-02 9.52130482e-02 9.94213596e-02 1.03629671e-01 1.07837982e-01 1.12046294e-01 1.16254605e-01 1.20462917e-01 1.24671228e-01 1.28879532e-01 1.33087844e-01 1.37296155e-01 1.41504467e-01 1.45712778e-01 1.49921089e-01 1.54129401e-01 1.58337712e-01 1.62546024e-01 1.66754335e-01 1.70962647e-01 1.75170958e-01 1.79379269e-01 1.83587581e-01 1.87795892e-01 1.92004204e-01 1.96212515e-01 2.00420827e-01 2.04629138e-01 2.08837450e-01 2.13045761e-01 2.17254072e-01 2.21462384e-01 2.25670695e-01 2.29879007e-01 2.34087318e-01 2.38295630e-01 2.42503941e-01 2.46712252e-01 2.50920564e-01 2.55128890e-01 2.59337187e-01 2.63545513e-01 2.67753810e-01 2.71962136e-01 2.76170433e-01 2.80378759e-01 2.84587055e-01 2.88795382e-01 2.93003678e-01 2.97212005e-01 3.01420301e-01 3.05628628e-01 3.09836924e-01 3.14045250e-01 3.18253547e-01 3.22461873e-01 3.26670170e-01 3.30878496e-01 3.35086793e-01 3.39295119e-01 3.43503416e-01 3.47711742e-01 3.51920038e-01 3.56128365e-01 3.60336661e-01 3.64544988e-01 3.68753284e-01 3.72961611e-01 3.77169907e-01 3.81378233e-01 3.85586530e-01 3.89794856e-01 3.94003153e-01 3.98211479e-01 4.02419776e-01 4.06628102e-01 4.10836399e-01 4.15044725e-01 4.19253021e-01 4.23461348e-01 4.27669644e-01 4.31877971e-01 4.36086267e-01 4.40294594e-01 4.44502890e-01 4.48711216e-01 4.52919513e-01 4.57127839e-01 4.61336136e-01 4.65544462e-01 4.69752759e-01 4.73961085e-01 4.78169382e-01 4.82377708e-01 4.86586004e-01 4.90794331e-01 4.95002627e-01 4.99210954e-01 5.03419280e-01 5.07627547e-01 5.11835873e-01 5.16044199e-01 5.20252526e-01 5.24460793e-01 5.28669119e-01 5.32877445e-01 5.37085772e-01 5.41294038e-01 5.45502365e-01 5.49710691e-01 5.53919017e-01 5.58127284e-01 5.62335610e-01 5.66543937e-01 5.70752263e-01 5.74960530e-01 5.79168856e-01 5.83377182e-01 5.87585509e-01 5.91793776e-01 5.96002102e-01 6.00210428e-01 6.04418755e-01 6.08627021e-01 6.12835348e-01 6.17043674e-01 6.21252000e-01 6.25460267e-01 6.29668593e-01 6.33876920e-01 6.38085246e-01 6.42293513e-01 6.46501839e-01 6.50710166e-01 6.54918492e-01 6.59126759e-01 6.63335085e-01 6.67543411e-01 6.71751738e-01 6.75960004e-01 6.80168331e-01 6.84376657e-01 6.88584983e-01 6.92793250e-01 6.97001576e-01 7.01209903e-01 7.05418229e-01 7.09626496e-01 7.13834822e-01 7.18043149e-01 7.22251475e-01 7.26459742e-01 7.30668068e-01 7.34876394e-01 7.39084721e-01 7.43292987e-01 7.47501314e-01 7.51709640e-01 7.55917966e-01 7.60126233e-01 7.64334559e-01 7.68542886e-01 7.72751212e-01 7.76959479e-01 7.81167805e-01 7.85376132e-01 7.89584458e-01 7.93792725e-01 7.98001051e-01 8.02209377e-01 8.06417704e-01 8.10625970e-01 8.14834297e-01 8.19042623e-01 8.23250949e-01 8.27459216e-01 8.31667542e-01 8.35875869e-01 8.40084195e-01 8.44292462e-01 8.48500788e-01 8.52709115e-01 8.56917441e-01 8.61125708e-01 8.65334034e-01 8.69542360e-01 8.73750687e-01 8.77958953e-01 8.82167280e-01 8.86375606e-01 8.90583932e-01 8.94792199e-01 8.99000525e-01 9.03208852e-01 9.07417178e-01 9.11625445e-01 9.15833771e-01 9.20042098e-01 9.24250424e-01 9.28458691e-01 9.32667017e-01 9.36875343e-01 9.41083670e-01 9.45291936e-01 9.49500263e-01 9.53708589e-01 9.57916915e-01 9.62125182e-01 9.66333508e-01 9.70541835e-01 9.74750161e-01 9.78958428e-01 9.83166754e-01 9.87375081e-01 9.91583407e-01 9.95791674e-01 1.00000000e+00 
            </Histogram>
            <HistogramBinning NBins="238">
              8.56514454e-01 8.56614470e-01 8.59955788e-01 8.61715317e-01 8.62946749e-01 8.63794327e-01 8.64733458e-01 8.65910292e-01 8.67217302e-01 8.68057966e-01 8.68977785e-01 8.69251728e-01 8.69464159e-01 8.70326877e-01 8.70824456e-01 8.71443987e-01 8.72048974e-01 8.72612596e-01 8.73032808e-01 8.73480797e-01 8.74022961e-01 8.74297738e-01 8.74484897e-01 8.74891758e-01 8.75127435e-01 8.75287175e-01 8.75598073e-01 8.75996947e-01 8.76345515e-01 8.76661777e-01 8.76990914e-01 8.77336979e-01 8.77701998e-01 8.78075719e-01 8.78450274e-01 8.78977060e-01 8.79276872e-01 8.79505038e-01 8.79681587e-01 8.80046010e-01 8.80481124e-01 8.80922794e-01 8.81340146e-01 8.81636143e-01 8.82401705e-01 8.82854700e-01 8.83166075e-01 8.83865714e-01 8.84240389e-01 8.84623766e-01 8.85169983e-01 8.85561943e-01 8.85761619e-01 8.86105299e-01 8.86419892e-01 8.86516094e-01 8.86956811e-01 8.87226343e-01 8.87464046e-01 8.87703776e-01 8.87931228e-01 8.88223290e-01 8.88523817e-01 8.89083862e-01 8.89442444e-01 8.89691591e-01 8.89870644e-01 8.90256882e-01 8.90583873e-01 8.90791774e-01 8.91406178e-01 8.91781330e-01 8.91978025e-01 8.92089963e-01 8.92372012e-01 8.92772198e-01 8.92980218e-01 8.93433213e-01 8.93698573e-01 8.93945575e-01 8.94503474e-01 8.94849658e-01 8.95183444e-01 8.95419240e-01 8.95795107e-01 8.96036267e-01 8.96386147e-01 8.96582603e-01 8.96953702e-01 8.97420049e-01 8.97795081e-01 8.98140669e-01 8.98489118e-01 8.98872972e-01 8.99227142e-01 8.99413943e-01 8.99784684e-01 9.00118828e-01 9.00576830e-01 9.00828958e-01 9.01126266e-01 9.01342273e-01 9.01613832e-01 9.01933074e-01 9.02188063e-01 9.02642250e-01 9.02971745e-01 9.03129339e-01 9.03464913e-01 9.03674603e-01 9.03979421e-01 9.04393196e-01 9.04749036e-01 9.05131221e-01 9.05632973e-01 9.06105518e-01 9.06247854e-01 9.06513691e-01 9.06869292e-01 9.07199383e-01 9.07520771e-01 9.08011675e-01 9.08430696e-01 9.08666492e-01 9.08896208e-01 9.08980370e-01 9.09186602e-01 9.09409761e-01 9.09783483e-01 9.10173178e-01 9.10505652e-01 9.10780907e-01 9.11012530e-01 9.11537051e-01 9.11674142e-01 9.11988735e-01 9.12285089e-01 9.12514925e-01 9.12714839e-01 9.13026452e-01 9.13518906e-01 9.14111137e-01 9.14541721e-01 9.14982080e-01 9.15500164e-01 9.15780783e-01 9.16013956e-01 9.16330338e-01 9.16688681e-01 9.17117238e-01 9.17680383e-01 9.17957187e-01 9.18342233e-01 9.18650150e-01 9.19237375e-01 9.19621944e-01 9.19919968e-01 9.20087695e-01 9.20312047e-01 9.20644999e-01 9.21173573e-01 9.21477675e-01 9.21851635e-01 9.22144175e-01 9.22448397e-01 9.22833681e-01 9.23275828e-01 9.23711658e-01 9.23984051e-01 9.24332619e-01 9.24960136e-01 9.25085664e-01 9.25431132e-01 9.25870776e-01 9.26255107e-01 9.26771641e-01 9.26962018e-01 9.27166462e-01 9.27644849e-01 9.27840471e-01 9.28366303e-01 9.29160118e-01 9.29710031e-01 9.30161476e-01 9.30416584e-01 9.30765152e-01 9.31562901e-01 9.31916952e-01 9.32168126e-01 9.32410121e-01 9.32821035e-01 9.33178186e-01 9.33600903e-01 9.34176803e-01 9.34761047e-01 9.35401082e-01 9.35656667e-01 9.35941100e-01 9.36505675e-01 9.37009692e-01 9.37310219e-01 9.37902570e-01 9.38370228e-01 9.39463496e-01 9.39844847e-01 9.39952493e-01 9.40496206e-01 9.40791726e-01 9.41653609e-01 9.41955090e-01 9.42796588e-01 9.43518400e-01 9.43865418e-01 9.44725513e-01 9.45251703e-01 9.45744038e-01 9.46588159e-01 9.47089911e-01 9.47440982e-01 9.47980165e-01 9.49105859e-01 9.50361013e-01 9.51399446e-01 9.52688336e-01 9.53530073e-01 9.54608560e-01 9.55751061e-01 9.57808256e-01 9.59899902e-01 9.61603045e-01 9.62954402e-01 9.64265704e-01 9.66030836e-01 9.67959046e-01 9.68845844e-01 9.71817493e-01 9.75943565e-01 9.86942172e-01 1.00000000e+00 
            </HistogramBinning>
          </PDF>
        </CumulativePDF_cls0>
        <CumulativePDF_cls1>
          <PDF Name="GaussTransform var1 cls1" MinNSmooth="0" MaxNSmooth="0" InterpolMethod="1" KDE_type="0" KDE_iter="1" KDE_border="1" KDE_finefactor="0.0000000000000000e+00">
